1790 100
</s> 0.18964 -0.072259 0.53795 -0.082337 -0.1406 -0.087235 0.1298 -0.058699 -0.036298 -0.17297 0.054754 -0.13813 -0.036245 0.2102 0.03984 -0.054131 0.11974 -0.2518 0.041208 -0.1405 0.1833 -0.04584 0.010009 0.071592 0.25283 0.076443 0.1929 -0.024324 -0.11962 0.32592 -0.081273 -0.018949 -0.045535 0.48255 -0.44073 0.035679 -0.052754 -0.27717 -0.30561 -0.069219 -0.10268 0.045273 0.13066 -0.36381 0.18976 0.041986 -0.13226 0.08524 0.022061 0.267 -0.45792 -0.18226 0.34513 0.066502 -0.34445 -0.14062 -0.035392 0.065482 -0.60011 0.074406 -0.30085 -0.20677 0.30453 -0.41164 0.4378 -0.024205 -0.16221 -0.17696 0.070108 0.15751 -0.11577 -0.10806 0.082061 -0.056701 0.17826 0.052861 0.015888 -0.13949 -0.27101 0.59494 0.40014 0.048572 -0.25818 -0.30077 0.1522 -0.12534 -0.056427 -0.032522 0.11587 0.014247 0.34906 -0.1271 0.54285 -0.2286 -0.34757 -0.0014233 -0.062359 0.42364 0.18097 0.09214 
반아는 0.23172 -0.089611 0.64847 -0.10675 -0.17283 -0.10673 0.15912 -0.067347 -0.036634 -0.21069 0.066194 -0.1661 -0.046726 0.24969 0.048913 -0.066114 0.14 -0.29956 0.059011 -0.1747 0.22134 -0.053724 0.011769 0.093285 0.3019 0.090189 0.23605 -0.034892 -0.13505 0.39506 -0.094526 -0.023115 -0.052091 0.58349 -0.53018 0.04011 -0.064726 -0.3316 -0.36315 -0.085408 -0.12767 0.05629 0.16034 -0.43271 0.22974 0.045945 -0.15657 0.10057 0.020109 0.32621 -0.5422 -0.21499 0.41544 0.074664 -0.41519 -0.16768 -0.043575 0.076546 -0.71825 0.080223 -0.36709 -0.24698 0.36119 -0.49171 0.52042 -0.020236 -0.19747 -0.21674 0.07675 0.17577 -0.14486 -0.12702 0.098083 -0.071996 0.22001 0.074085 0.018909 -0.16329 -0.33073 0.71091 0.48336 0.059678 -0.30696 -0.36262 0.19327 -0.14473 -0.070097 -0.036323 0.13109 0.019562 0.41255 -0.15046 0.64936 -0.27295 -0.41926 0.0041562 -0.072237 0.49982 0.21934 0.11344 
반아의 0.2313 -0.094394 0.64276 -0.10797 -0.17024 -0.11299 0.15499 -0.067991 -0.034068 -0.21145 0.065676 -0.16458 -0.047924 0.24724 0.053371 -0.061047 0.14083 -0.29945 0.057111 -0.17294 0.21952 -0.060147 0.010188 0.091376 0.29988 0.087896 0.2379 -0.030569 -0.13225 0.39314 -0.092164 -0.01978 -0.054778 0.57813 -0.52555 0.040026 -0.063069 -0.33068 -0.36449 -0.08357 -0.1253 0.054261 0.1605 -0.43763 0.22727 0.049586 -0.15813 0.1076 0.026621 0.32225 -0.54415 -0.21972 0.41381 0.076341 -0.41187 -0.16668 -0.047195 0.078507 -0.718 0.082423 -0.35635 -0.24123 0.36418 -0.48942 0.52219 -0.022343 -0.19665 -0.21935 0.078896 0.17712 -0.14227 -0.13088 0.099016 -0.075885 0.21956 0.068498 0.01557 -0.16634 -0.32868 0.70892 0.48809 0.064531 -0.30949 -0.36291 0.18363 -0.1436 -0.067363 -0.035969 0.13561 0.018761 0.41502 -0.1498 0.64903 -0.2729 -0.41939 0.0039527 -0.072765 0.50144 0.2149 0.11184 
있는 0.27607 -0.11048 0.783 -0.12656 -0.21113 -0.13262 0.18919 -0.087904 -0.043841 -0.25051 0.083293 -0.19782 -0.056702 0.30657 0.056168 -0.079691 0.17117 -0.36922 0.067082 -0.20889 0.2688 -0.065565 0.01414 0.10682 0.36313 0.10776 0.28142 -0.034012 -0.16395 0.47246 -0.11216 -0.023648 -0.064963 0.70299 -0.63269 0.051264 -0.079479 -0.39633 -0.43877 -0.10061 -0.1449 0.065249 0.18879 -0.52878 0.27986 0.059265 -0.18143 0.12619 0.027911 0.39306 -0.65951 -0.26771 0.50327 0.089113 -0.50185 -0.20912 -0.052777 0.099526 -0.8659 0.10236 -0.43927 -0.29164 0.43844 -0.59741 0.63027 -0.028999 -0.22874 -0.25614 0.098155 0.21887 -0.1752 -0.15958 0.11519 -0.084437 0.25948 0.082217 0.019873 -0.19656 -0.39784 0.85697 0.5831 0.075078 -0.37319 -0.43796 0.22563 -0.17478 -0.08145 -0.04675 0.16282 0.02002 0.50698 -0.18965 0.79008 -0.32952 -0.50423 -0.0048448 -0.09057 0.61144 0.25958 0.12898 
그의 0.26631 -0.10847 0.75888 -0.11885 -0.19968 -0.12364 0.18725 -0.085254 -0.035016 -0.2383 0.08161 -0.19343 -0.04894 0.29219 0.059719 -0.071765 0.16089 -0.35129 0.065857 -0.20725 0.25926 -0.066176 0.017148 0.10165 0.35442 0.10993 0.28227 -0.035568 -0.15124 0.46464 -0.10855 -0.028335 -0.062915 0.67649 -0.61633 0.045589 -0.076445 -0.38923 -0.42575 -0.095543 -0.14722 0.061846 0.18001 -0.50858 0.26269 0.052343 -0.18399 0.12342 0.029261 0.37119 -0.63989 -0.25058 0.48971 0.08416 -0.48182 -0.19067 -0.0548 0.093056 -0.84001 0.10044 -0.41875 -0.28686 0.42204 -0.57643 0.6129 -0.027087 -0.22552 -0.25485 0.088377 0.21028 -0.17385 -0.14827 0.1129 -0.078955 0.24958 0.079737 0.011999 -0.19127 -0.38058 0.82774 0.56359 0.076801 -0.36695 -0.42585 0.22356 -0.1679 -0.084211 -0.041986 0.1518 0.020679 0.48283 -0.17841 0.76464 -0.32002 -0.49264 0.0037017 -0.082923 0.58851 0.25292 0.1231 
하고 0.33035 -0.12987 0.90523 -0.15233 -0.24033 -0.15018 0.21675 -0.095896 -0.049463 -0.28706 0.094116 -0.2292 -0.058273 0.35613 0.066577 -0.077943 0.19238 -0.42113 0.083268 -0.24401 0.30508 -0.078949 0.024888 0.12844 0.42436 0.13029 0.32873 -0.042467 -0.19399 0.54369 -0.13389 -0.026116 -0.072072 0.81148 -0.72721 0.057847 -0.092715 -0.46232 -0.5125 -0.11397 -0.17282 0.077571 0.21566 -0.60295 0.32307 0.064281 -0.21543 0.14385 0.031573 0.45243 -0.7563 -0.29981 0.57794 0.1021 -0.57263 -0.23662 -0.064851 0.10892 -0.99758 0.11789 -0.50807 -0.34294 0.50777 -0.69145 0.72793 -0.035884 -0.27806 -0.30121 0.1024 0.25131 -0.20411 -0.17566 0.13553 -0.10222 0.30166 0.098684 0.02463 -0.23031 -0.45977 0.99034 0.67026 0.085725 -0.43632 -0.50095 0.26615 -0.20266 -0.10294 -0.053512 0.18415 0.025204 0.58104 -0.20827 0.90677 -0.37833 -0.58447 0.003642 -0.10121 0.70268 0.30057 0.14968 
있었다. 0.21195 -0.088141 0.5794 -0.10013 -0.15596 -0.10173 0.14556 -0.065435 -0.02658 -0.19491 0.061446 -0.1517 -0.037108 0.22019 0.04772 -0.057054 0.12411 -0.26869 0.052745 -0.15277 0.19555 -0.048729 0.019663 0.084026 0.27139 0.082707 0.2115 -0.026748 -0.11537 0.35546 -0.078153 -0.015721 -0.049281 0.51958 -0.46374 0.029276 -0.065342 -0.30002 -0.32964 -0.076552 -0.11442 0.054362 0.14756 -0.38713 0.20455 0.036495 -0.14317 0.094822 0.017676 0.28799 -0.47865 -0.19112 0.3674 0.061291 -0.37008 -0.15627 -0.037729 0.066767 -0.643 0.075857 -0.32544 -0.21657 0.31773 -0.44361 0.46651 -0.0212 -0.17633 -0.19044 0.062723 0.15625 -0.13296 -0.11569 0.093898 -0.06824 0.19496 0.064853 0.01029 -0.14774 -0.29966 0.63731 0.43296 0.058263 -0.2737 -0.32767 0.17222 -0.12666 -0.067926 -0.03408 0.11857 0.017668 0.37148 -0.13983 0.58555 -0.24427 -0.38598 0.00030806 -0.067059 0.44969 0.19379 0.1022 
그 0.28376 -0.11766 0.7998 -0.13801 -0.20944 -0.14113 0.1871 -0.081743 -0.048488 -0.26766 0.082302 -0.20446 -0.054305 0.31735 0.065144 -0.078517 0.17136 -0.37213 0.075082 -0.21681 0.2792 -0.068192 0.0091905 0.10693 0.3696 0.11554 0.29039 -0.033813 -0.17158 0.48712 -0.12479 -0.023773 -0.064579 0.72192 -0.66286 0.056145 -0.076241 -0.42062 -0.44968 -0.10187 -0.14837 0.072959 0.18947 -0.53605 0.28262 0.066532 -0.19303 0.1366 0.035256 0.39938 -0.68072 -0.26728 0.51957 0.099475 -0.50853 -0.21058 -0.06296 0.0974 -0.88751 0.10869 -0.4466 -0.30878 0.45521 -0.6175 0.64651 -0.03905 -0.23328 -0.26966 0.096926 0.22466 -0.18308 -0.16062 0.11667 -0.08746 0.27553 0.088416 0.014537 -0.20407 -0.41666 0.88559 0.6021 0.07578 -0.37939 -0.44485 0.23596 -0.17112 -0.08165 -0.046307 0.1711 0.024116 0.51982 -0.19227 0.79836 -0.34484 -0.52076 -0.0045721 -0.091613 0.62167 0.27297 0.13238 
그녀의 0.25336 -0.10463 0.7064 -0.1097 -0.19078 -0.11993 0.1675 -0.074512 -0.041355 -0.22728 0.073582 -0.17899 -0.048312 0.27336 0.056425 -0.071747 0.15323 -0.32621 0.063095 -0.18918 0.23365 -0.06278 0.020866 0.093705 0.32645 0.10269 0.25839 -0.037232 -0.14782 0.42801 -0.099413 -0.02876 -0.053442 0.63709 -0.57149 0.045441 -0.07108 -0.35909 -0.40066 -0.090173 -0.13671 0.056782 0.17396 -0.4766 0.2552 0.04991 -0.16954 0.11932 0.024672 0.35527 -0.59172 -0.23556 0.45548 0.079774 -0.45063 -0.18418 -0.051836 0.080428 -0.78407 0.091323 -0.3941 -0.27147 0.39703 -0.54048 0.57314 -0.023995 -0.21075 -0.23728 0.087465 0.19365 -0.15764 -0.1426 0.10871 -0.08007 0.23746 0.074457 0.017015 -0.18044 -0.35987 0.77513 0.52471 0.066118 -0.34212 -0.3968 0.2074 -0.157 -0.080202 -0.036016 0.14737 0.021706 0.45267 -0.16913 0.71202 -0.29839 -0.45869 -0.00011395 -0.080583 0.55336 0.2311 0.118 
다시 0.2858 -0.11439 0.80285 -0.12955 -0.21703 -0.12843 0.18979 -0.089307 -0.050224 -0.26629 0.080721 -0.20584 -0.060509 0.30484 0.059012 -0.082658 0.17418 -0.37346 0.069742 -0.21379 0.27428 -0.068174 0.014312 0.10646 0.36923 0.11086 0.29487 -0.037036 -0.1625 0.4845 -0.1224 -0.024933 -0.066498 0.71166 -0.65105 0.048069 -0.082409 -0.41087 -0.44897 -0.10478 -0.1571 0.07048 0.19156 -0.5332 0.2853 0.060631 -0.19595 0.13059 0.027972 0.39436 -0.66926 -0.27138 0.51187 0.087335 -0.50808 -0.20759 -0.054823 0.095107 -0.88426 0.10597 -0.44515 -0.29863 0.44468 -0.61175 0.64948 -0.034793 -0.24067 -0.26284 0.095052 0.22544 -0.17681 -0.16221 0.12097 -0.087743 0.26321 0.086956 0.021477 -0.20513 -0.4056 0.88645 0.59886 0.073532 -0.38129 -0.45178 0.22852 -0.17681 -0.089247 -0.04531 0.16958 0.023586 0.50947 -0.18497 0.80793 -0.33833 -0.51657 0.00081303 -0.092349 0.62482 0.27176 0.13534 
자신의 0.2305 -0.090579 0.64103 -0.10357 -0.17231 -0.10992 0.15655 -0.068957 -0.034633 -0.20868 0.070001 -0.16337 -0.04074 0.24921 0.052876 -0.059716 0.14109 -0.29946 0.054729 -0.17221 0.21606 -0.051928 0.013393 0.085571 0.30455 0.083778 0.23604 -0.03016 -0.13376 0.39129 -0.09088 -0.022775 -0.051361 0.58033 -0.51843 0.039131 -0.06678 -0.32873 -0.36476 -0.087222 -0.12357 0.057821 0.1564 -0.43205 0.23221 0.049911 -0.15655 0.10736 0.026468 0.31646 -0.53743 -0.21537 0.41153 0.07201 -0.40596 -0.16559 -0.044107 0.079483 -0.71446 0.083864 -0.36057 -0.24755 0.35876 -0.48852 0.51881 -0.018899 -0.18805 -0.21509 0.078781 0.18017 -0.14611 -0.12662 0.099327 -0.073981 0.21164 0.072735 0.012993 -0.16277 -0.32899 0.70448 0.48171 0.060775 -0.30868 -0.36312 0.1916 -0.14538 -0.074487 -0.033239 0.13153 0.014651 0.41258 -0.15273 0.64433 -0.26816 -0.41909 -0.0055171 -0.07519 0.50351 0.21272 0.10747 
그는 0.23084 -0.091522 0.64008 -0.099242 -0.1755 -0.11164 0.16237 -0.06516 -0.038138 -0.21176 0.065115 -0.16201 -0.046399 0.24699 0.055056 -0.062263 0.14511 -0.29895 0.053495 -0.17295 0.22001 -0.05281 0.017756 0.087431 0.30063 0.093097 0.23652 -0.026499 -0.13331 0.3961 -0.095498 -0.017389 -0.050762 0.57731 -0.52213 0.042627 -0.065102 -0.33305 -0.36378 -0.085473 -0.12785 0.051328 0.16094 -0.42784 0.22782 0.050726 -0.15458 0.10669 0.014076 0.31722 -0.54056 -0.21159 0.41693 0.072824 -0.4072 -0.16814 -0.04626 0.077289 -0.71214 0.084593 -0.3514 -0.24528 0.35753 -0.48591 0.52123 -0.028511 -0.19214 -0.21429 0.081064 0.17544 -0.14755 -0.12518 0.096887 -0.068095 0.21877 0.067343 0.019805 -0.16307 -0.32161 0.70902 0.48418 0.065404 -0.3094 -0.36205 0.18713 -0.14178 -0.062497 -0.036118 0.13409 0.012841 0.41269 -0.14909 0.65347 -0.26679 -0.41368 -0.0011288 -0.071486 0.50465 0.21184 0.1107 
시작했다. 0.1979 -0.083081 0.54666 -0.091936 -0.1469 -0.092897 0.13353 -0.061325 -0.025366 -0.17688 0.056911 -0.14038 -0.035359 0.20824 0.04218 -0.052615 0.11709 -0.24875 0.048565 -0.14427 0.18542 -0.046346 0.016359 0.077102 0.25513 0.076316 0.1977 -0.026228 -0.10683 0.3341 -0.079037 -0.018818 -0.042298 0.48768 -0.44171 0.030419 -0.058559 -0.2828 -0.30912 -0.073925 -0.10747 0.048003 0.13138 -0.36583 0.19188 0.036887 -0.13085 0.089765 0.016206 0.27075 -0.45062 -0.17841 0.34806 0.060084 -0.35397 -0.14536 -0.037672 0.066289 -0.60512 0.071108 -0.30894 -0.20444 0.30149 -0.4188 0.44315 -0.021427 -0.16348 -0.17711 0.062494 0.14727 -0.12305 -0.10843 0.083879 -0.065239 0.18455 0.057579 0.012484 -0.13828 -0.27871 0.6009 0.40802 0.054715 -0.25822 -0.30745 0.16088 -0.12032 -0.060711 -0.034336 0.11454 0.017459 0.34967 -0.12787 0.55116 -0.22927 -0.3602 0.0046959 -0.06253 0.42348 0.18134 0.091135 
말에 0.20386 -0.078368 0.5622 -0.089675 -0.14554 -0.090955 0.13107 -0.059588 -0.033568 -0.18315 0.063423 -0.14413 -0.043406 0.22141 0.041445 -0.054062 0.12438 -0.25297 0.04356 -0.15311 0.18966 -0.044252 0.0054395 0.074189 0.26685 0.08254 0.20395 -0.027475 -0.11316 0.33809 -0.079076 -0.017442 -0.043565 0.50552 -0.45014 0.030989 -0.05917 -0.28699 -0.31273 -0.078589 -0.10732 0.043889 0.1354 -0.37218 0.20159 0.03756 -0.13826 0.091061 0.021487 0.28119 -0.46128 -0.1809 0.35373 0.064264 -0.35543 -0.14336 -0.04093 0.067934 -0.61686 0.071107 -0.31221 -0.21504 0.30953 -0.42167 0.45343 -0.024404 -0.16418 -0.188 0.065577 0.15159 -0.128 -0.10745 0.087944 -0.063997 0.18828 0.057454 0.021053 -0.14041 -0.28873 0.61456 0.42315 0.054999 -0.27205 -0.31176 0.16988 -0.12424 -0.056195 -0.032723 0.11349 0.017941 0.35861 -0.13088 0.5602 -0.23 -0.36285 0.0039415 -0.062829 0.43523 0.18525 0.094786 
반아가 0.23526 -0.093057 0.66625 -0.10936 -0.17273 -0.11066 0.16311 -0.073116 -0.038064 -0.21722 0.069991 -0.16521 -0.046434 0.25793 0.050283 -0.063014 0.14406 -0.30711 0.062509 -0.17665 0.22209 -0.053565 0.012711 0.09532 0.30908 0.095848 0.24629 -0.029072 -0.13428 0.40233 -0.09632 -0.016785 -0.053609 0.59595 -0.54206 0.044394 -0.063959 -0.33802 -0.37594 -0.091909 -0.13195 0.057692 0.15743 -0.44863 0.23292 0.050347 -0.15603 0.11216 0.028214 0.33408 -0.56006 -0.22115 0.42562 0.076858 -0.42978 -0.17638 -0.044503 0.078896 -0.73817 0.090526 -0.37511 -0.25335 0.37663 -0.50368 0.54103 -0.022533 -0.19967 -0.21805 0.08024 0.18567 -0.14719 -0.13788 0.099501 -0.075054 0.21952 0.071481 0.020291 -0.16912 -0.33828 0.73423 0.50052 0.062374 -0.32122 -0.36859 0.19377 -0.14783 -0.071249 -0.036809 0.14079 0.01945 0.42648 -0.15777 0.66962 -0.27775 -0.43625 0.00032468 -0.076316 0.51951 0.22332 0.11011 
* 0.05598 -0.020899 0.13289 -0.028729 -0.026602 -0.025433 0.025061 -0.020506 -0.024302 -0.038105 0.018935 -0.038142 -0.019917 0.077054 0.013108 0.0030372 0.037968 -0.058073 0.0097165 -0.039376 0.060287 -0.01547 -0.0091155 0.02965 0.06744 0.024716 0.048046 0.012055 -0.043845 0.09415 -0.029496 -0.0078698 0.0025006 0.1167 -0.14089 -0.0044632 -0.02594 -0.071837 -0.089424 0.0071613 -0.021769 0.010431 0.043763 -0.087972 0.036731 -0.012982 -0.039876 0.036667 -0.0013417 0.083085 -0.12926 -0.048927 0.10275 0.025136 -0.080799 -0.034699 -0.0093918 0.01777 -0.16863 0.022477 -0.071687 -0.0539 0.082468 -0.11884 0.12076 -0.0051067 -0.02921 -0.03545 0.01457 0.059633 -0.010183 -0.013672 0.005788 -0.025306 0.049964 -0.0010724 -0.0060012 -0.050358 -0.073101 0.16994 0.11336 0.022064 -0.0634 -0.086206 0.041218 -0.042568 -0.010355 -0.016197 0.041648 -0.01481 0.076795 -0.034784 0.16007 -0.066824 -0.088248 0.0097193 -0.023048 0.12099 0.05883 0.02506 
반아를 0.2441 -0.093982 0.68289 -0.11069 -0.18057 -0.11601 0.16945 -0.073071 -0.038658 -0.21994 0.076318 -0.1735 -0.049485 0.26644 0.052782 -0.063943 0.14706 -0.31755 0.062275 -0.18507 0.23245 -0.05589 0.017728 0.10005 0.32138 0.097261 0.25519 -0.028147 -0.14116 0.4215 -0.097034 -0.018584 -0.056776 0.61827 -0.55828 0.043409 -0.066482 -0.3531 -0.38772 -0.090736 -0.13512 0.062334 0.16732 -0.46134 0.24433 0.052965 -0.16453 0.11334 0.029408 0.34153 -0.5684 -0.22555 0.4419 0.079709 -0.43806 -0.18274 -0.042704 0.082863 -0.7625 0.092273 -0.38704 -0.26198 0.38499 -0.52585 0.55469 -0.024505 -0.20607 -0.22418 0.080522 0.19094 -0.15238 -0.13748 0.1017 -0.073355 0.23005 0.07479 0.019862 -0.17888 -0.35239 0.75804 0.51317 0.064399 -0.33007 -0.38813 0.19881 -0.15095 -0.071127 -0.042033 0.14453 0.02632 0.44118 -0.16316 0.69252 -0.28741 -0.44353 0.0024178 -0.079181 0.53485 0.22672 0.11727 
수 0.28973 -0.12019 0.80158 -0.12451 -0.21381 -0.13778 0.19177 -0.086098 -0.045888 -0.26183 0.07929 -0.20222 -0.061556 0.30758 0.053767 -0.070436 0.18546 -0.37573 0.061956 -0.22678 0.27668 -0.06543 0.01316 0.10749 0.37106 0.11229 0.29716 -0.04293 -0.17111 0.48211 -0.12541 -0.028514 -0.061932 0.7124 -0.6469 0.054057 -0.075124 -0.41118 -0.45285 -0.11099 -0.15248 0.064453 0.18906 -0.53444 0.28982 0.062537 -0.19225 0.13524 0.02625 0.39781 -0.68106 -0.26854 0.50971 0.085978 -0.50557 -0.21604 -0.061218 0.10078 -0.89172 0.11277 -0.45453 -0.31045 0.45496 -0.60908 0.64699 -0.036678 -0.23529 -0.26301 0.09636 0.23131 -0.18189 -0.1603 0.11677 -0.090133 0.26899 0.085182 0.023728 -0.20067 -0.40192 0.88966 0.59878 0.076313 -0.38766 -0.45235 0.2389 -0.17944 -0.083724 -0.052099 0.17001 0.018228 0.52228 -0.19107 0.81588 -0.33694 -0.52258 -0.00089924 -0.095768 0.629 0.2632 0.13088 
그러자 0.22486 -0.080982 0.62628 -0.10683 -0.1667 -0.10787 0.1556 -0.063049 -0.039917 -0.20294 0.065287 -0.15801 -0.042116 0.24429 0.051124 -0.06021 0.13986 -0.29621 0.05626 -0.17598 0.21986 -0.051139 0.014165 0.083487 0.29713 0.088171 0.23168 -0.028793 -0.12777 0.38111 -0.094107 -0.021589 -0.04684 0.56092 -0.51515 0.038139 -0.061759 -0.32184 -0.35285 -0.085735 -0.12063 0.053932 0.15207 -0.42428 0.22078 0.042807 -0.14984 0.10325 0.020157 0.30876 -0.525 -0.20918 0.3988 0.071965 -0.39992 -0.16676 -0.046984 0.07955 -0.69325 0.087492 -0.34515 -0.23874 0.34637 -0.4754 0.50954 -0.027694 -0.18769 -0.20648 0.077827 0.17574 -0.14403 -0.13177 0.097496 -0.068972 0.20757 0.066439 0.02235 -0.16319 -0.32184 0.6893 0.46993 0.060096 -0.2997 -0.34865 0.18209 -0.14067 -0.06994 -0.035679 0.1313 0.019062 0.40465 -0.14725 0.63305 -0.26503 -0.40627 0.0024553 -0.070346 0.49194 0.21534 0.10445 
그리고 0.24542 -0.093715 0.69395 -0.11388 -0.1849 -0.11295 0.16652 -0.076347 -0.03982 -0.22045 0.073281 -0.18204 -0.043471 0.27336 0.055104 -0.069303 0.14757 -0.32151 0.058187 -0.1907 0.2421 -0.060807 0.014774 0.097653 0.32155 0.097145 0.24966 -0.030549 -0.14296 0.41989 -0.099839 -0.022613 -0.058671 0.62516 -0.56164 0.040609 -0.071346 -0.35519 -0.38943 -0.092032 -0.13246 0.058457 0.16367 -0.46482 0.24409 0.053602 -0.16566 0.1117 0.023746 0.33913 -0.57949 -0.23208 0.44196 0.077073 -0.44053 -0.18097 -0.042747 0.083583 -0.76823 0.089001 -0.38407 -0.26322 0.38541 -0.5302 0.56166 -0.027569 -0.20345 -0.22696 0.090511 0.19272 -0.15472 -0.1405 0.10195 -0.076896 0.23223 0.071908 0.017969 -0.17275 -0.35334 0.7643 0.52033 0.06612 -0.33255 -0.38515 0.19897 -0.14891 -0.077375 -0.041209 0.1428 0.022619 0.44074 -0.16685 0.69823 -0.29379 -0.45 0.0025049 -0.082955 0.54432 0.22993 0.12117 
향해 0.22948 -0.097914 0.64824 -0.10515 -0.17704 -0.11076 0.16112 -0.066741 -0.034789 -0.20978 0.067441 -0.16302 -0.047228 0.25242 0.050739 -0.058339 0.14443 -0.29859 0.0609 -0.18105 0.22056 -0.056654 0.014454 0.093973 0.3044 0.086904 0.23724 -0.02997 -0.13607 0.38627 -0.096222 -0.029983 -0.055875 0.58605 -0.52927 0.040596 -0.064327 -0.33624 -0.36708 -0.077537 -0.13405 0.052478 0.15443 -0.43772 0.22441 0.050008 -0.15362 0.10158 0.023438 0.32307 -0.54291 -0.22092 0.40988 0.073601 -0.42021 -0.17458 -0.044875 0.076016 -0.72107 0.084185 -0.36525 -0.24394 0.36494 -0.49004 0.52514 -0.026957 -0.19229 -0.21838 0.078216 0.17498 -0.14837 -0.13006 0.099566 -0.064519 0.22256 0.067416 0.017264 -0.16337 -0.33283 0.70908 0.48722 0.066468 -0.31466 -0.37186 0.19318 -0.14577 -0.072969 -0.033856 0.13495 0.017373 0.41679 -0.14685 0.65424 -0.27463 -0.42162 -0.00047063 -0.076306 0.50798 0.21669 0.10953 
말했다. 0.18384 -0.074088 0.50373 -0.087845 -0.13553 -0.086725 0.1235 -0.054202 -0.023429 -0.16427 0.052242 -0.1313 -0.032577 0.19305 0.041451 -0.046786 0.11008 -0.23408 0.049366 -0.13357 0.1719 -0.043778 0.013939 0.071604 0.23691 0.072162 0.18261 -0.023295 -0.10124 0.31079 -0.070688 -0.015132 -0.044936 0.45108 -0.40995 0.029084 -0.058599 -0.2635 -0.2877 -0.068922 -0.097474 0.045441 0.12361 -0.33267 0.17729 0.029166 -0.12479 0.081114 0.012216 0.25014 -0.41489 -0.16254 0.32066 0.055088 -0.32523 -0.13479 -0.033817 0.055485 -0.55967 0.066914 -0.28942 -0.18949 0.27958 -0.3881 0.4073 -0.019633 -0.15023 -0.1674 0.056804 0.13233 -0.11516 -0.10047 0.078934 -0.058409 0.1704 0.05469 0.0076323 -0.12992 -0.25822 0.55381 0.37748 0.052861 -0.23846 -0.28373 0.14835 -0.10858 -0.060272 -0.02883 0.10331 0.011832 0.32217 -0.12071 0.50566 -0.20971 -0.32965 0.0041932 -0.055256 0.39097 0.16722 0.08652 
륜은 0.22277 -0.084534 0.63081 -0.09845 -0.17315 -0.10361 0.15233 -0.066177 -0.032166 -0.20334 0.068818 -0.16412 -0.040831 0.24307 0.04612 -0.05994 0.13653 -0.29047 0.055128 -0.16399 0.20948 -0.05283 0.013286 0.083888 0.29663 0.086501 0.22652 -0.028927 -0.13736 0.37862 -0.089061 -0.016328 -0.043246 0.57084 -0.50943 0.043292 -0.060789 -0.32465 -0.35507 -0.0825 -0.12475 0.056827 0.14742 -0.42029 0.22643 0.045615 -0.14875 0.098704 0.023602 0.30707 -0.51972 -0.21014 0.40389 0.071755 -0.39641 -0.16894 -0.043003 0.079566 -0.69375 0.08542 -0.3504 -0.23544 0.3494 -0.47293 0.5114 -0.031541 -0.18512 -0.20696 0.077838 0.17403 -0.14249 -0.13152 0.088173 -0.067987 0.20915 0.063879 0.017362 -0.15944 -0.31815 0.68996 0.47213 0.057723 -0.30215 -0.35667 0.18475 -0.14369 -0.068083 -0.043797 0.13426 0.018302 0.40583 -0.15194 0.62929 -0.26526 -0.40528 0.0068045 -0.073142 0.49082 0.21333 0.10441 
했다. 0.23181 -0.10006 0.64152 -0.11452 -0.17629 -0.11277 0.15885 -0.075754 -0.024971 -0.21763 0.066047 -0.17119 -0.040851 0.24806 0.051996 -0.061074 0.13719 -0.30025 0.060379 -0.171 0.21578 -0.056409 0.015427 0.09392 0.30269 0.091951 0.23158 -0.030429 -0.12648 0.39904 -0.093923 -0.021575 -0.053694 0.58111 -0.51976 0.033198 -0.072498 -0.33821 -0.36929 -0.089834 -0.13085 0.054236 0.16197 -0.42767 0.2287 0.040457 -0.15749 0.1075 0.021239 0.31966 -0.53167 -0.20856 0.40946 0.070985 -0.41949 -0.17295 -0.044536 0.073426 -0.72238 0.083659 -0.37077 -0.24106 0.36108 -0.50099 0.52721 -0.026956 -0.19693 -0.21223 0.069369 0.17039 -0.14908 -0.13069 0.10168 -0.077442 0.21892 0.068328 0.012515 -0.16761 -0.33526 0.71381 0.48416 0.0677 -0.30871 -0.36554 0.19443 -0.13996 -0.07838 -0.038619 0.13014 0.017309 0.41397 -0.15043 0.65687 -0.27208 -0.43135 0.0065338 -0.069973 0.50188 0.21675 0.11537 
있던 0.25973 -0.10076 0.71902 -0.11538 -0.18857 -0.11732 0.17082 -0.081251 -0.045478 -0.22747 0.072115 -0.18198 -0.050973 0.28461 0.054919 -0.071275 0.15546 -0.3366 0.067525 -0.19649 0.24802 -0.062308 0.013682 0.098092 0.34302 0.10768 0.26579 -0.032336 -0.14741 0.43899 -0.10827 -0.023754 -0.061127 0.6579 -0.58698 0.048245 -0.074546 -0.37654 -0.41419 -0.092381 -0.14289 0.058118 0.17676 -0.49525 0.25223 0.04812 -0.17617 0.11995 0.02422 0.35847 -0.60549 -0.24243 0.47022 0.082727 -0.46547 -0.19015 -0.049016 0.087632 -0.80243 0.092579 -0.40391 -0.27532 0.40641 -0.54639 0.58179 -0.03152 -0.21404 -0.24066 0.092315 0.2012 -0.16631 -0.14788 0.10074 -0.07811 0.24012 0.075425 0.021549 -0.18151 -0.3687 0.80226 0.54356 0.067738 -0.34995 -0.4087 0.21133 -0.15634 -0.074209 -0.037394 0.15281 0.024004 0.47384 -0.17458 0.72676 -0.30556 -0.47155 -0.001851 -0.086068 0.56131 0.23993 0.12568 
륜의 0.24422 -0.096159 0.68145 -0.1133 -0.18556 -0.11946 0.16562 -0.070867 -0.038421 -0.22179 0.07182 -0.17245 -0.052636 0.26167 0.05423 -0.062307 0.14465 -0.31806 0.055749 -0.18113 0.23501 -0.052824 0.012941 0.089275 0.31908 0.098674 0.24989 -0.035191 -0.14031 0.41476 -0.094394 -0.017113 -0.054075 0.61287 -0.55985 0.040096 -0.069603 -0.35117 -0.38419 -0.086025 -0.13258 0.057057 0.16164 -0.45267 0.23584 0.0557 -0.16827 0.1055 0.024127 0.33251 -0.57013 -0.22705 0.43746 0.079985 -0.43686 -0.17121 -0.049158 0.086816 -0.75585 0.092279 -0.37616 -0.25314 0.37853 -0.52054 0.54789 -0.026028 -0.20197 -0.229 0.082222 0.18494 -0.15401 -0.13722 0.10198 -0.073395 0.22435 0.075275 0.014427 -0.16898 -0.34694 0.75052 0.50161 0.063211 -0.32416 -0.37886 0.19149 -0.15203 -0.069702 -0.043146 0.1417 0.020956 0.43403 -0.16606 0.68275 -0.28618 -0.43848 -0.0016181 -0.076297 0.53523 0.22817 0.11474 
마법 0.2714 -0.093639 0.74432 -0.10207 -0.19036 -0.1192 0.17338 -0.085628 -0.055171 -0.23799 0.084138 -0.19705 -0.043521 0.29713 0.060382 -0.068658 0.16454 -0.34979 0.053045 -0.19259 0.26384 -0.050828 0.027576 0.092475 0.34969 0.09292 0.25902 -0.038609 -0.16784 0.42153 -0.129 -0.035592 -0.053095 0.67636 -0.59878 0.054922 -0.058711 -0.37326 -0.41908 -0.092703 -0.13978 0.07893 0.15142 -0.5088 0.24088 0.070471 -0.17352 0.12976 0.055931 0.3669 -0.63369 -0.2483 0.47754 0.090196 -0.47668 -0.19016 -0.062069 0.090984 -0.81517 0.10788 -0.39929 -0.27353 0.40975 -0.55098 0.61128 -0.040963 -0.21199 -0.23866 0.096547 0.23771 -0.15975 -0.16892 0.11148 -0.082356 0.23686 0.078795 0.023377 -0.19169 -0.38185 0.82599 0.54984 0.076345 -0.35449 -0.41417 0.18752 -0.15366 -0.066901 -0.053264 0.16224 0.020663 0.49077 -0.16958 0.7429 -0.30723 -0.47399 -0.0037128 -0.091725 0.59225 0.25168 0.12168 
손을 0.25204 -0.10477 0.69961 -0.11511 -0.18462 -0.11687 0.17506 -0.079695 -0.041308 -0.22595 0.075207 -0.17352 -0.048286 0.26594 0.054647 -0.072653 0.15451 -0.32864 0.058954 -0.19241 0.23788 -0.056316 0.016011 0.097279 0.33318 0.098518 0.25608 -0.034334 -0.15182 0.42662 -0.099327 -0.0215 -0.059579 0.62902 -0.56648 0.046634 -0.076194 -0.35958 -0.39132 -0.089237 -0.13694 0.066008 0.16296 -0.47232 0.24731 0.050516 -0.16937 0.11419 0.027745 0.35203 -0.58157 -0.23954 0.45071 0.080188 -0.45183 -0.18524 -0.055225 0.081041 -0.78327 0.091369 -0.39277 -0.26332 0.39093 -0.53541 0.57147 -0.020549 -0.21064 -0.23247 0.084957 0.20146 -0.16076 -0.13885 0.10679 -0.082383 0.23812 0.081497 0.017703 -0.18132 -0.36417 0.77534 0.52485 0.072741 -0.34049 -0.39243 0.20722 -0.1541 -0.079416 -0.042772 0.14814 0.018904 0.44509 -0.1641 0.70461 -0.29251 -0.45778 0.002343 -0.079558 0.55552 0.23783 0.11869 
그리곤 0.20379 -0.07717 0.57037 -0.09147 -0.14929 -0.092974 0.13749 -0.059389 -0.033891 -0.18199 0.057555 -0.14259 -0.036506 0.2199 0.046937 -0.053649 0.12306 -0.26508 0.050579 -0.1509 0.19643 -0.048128 0.013862 0.081118 0.26663 0.076646 0.2033 -0.025349 -0.1172 0.34493 -0.086614 -0.018981 -0.042132 0.50987 -0.45734 0.031702 -0.055418 -0.29301 -0.32018 -0.075509 -0.10661 0.049744 0.13458 -0.38086 0.20041 0.040828 -0.13454 0.08972 0.02178 0.27644 -0.47048 -0.18859 0.36651 0.067072 -0.35857 -0.14449 -0.041397 0.064589 -0.62741 0.072893 -0.31314 -0.21489 0.31477 -0.42874 0.45901 -0.020213 -0.17155 -0.18786 0.072279 0.15661 -0.12754 -0.11432 0.081753 -0.061963 0.19199 0.063396 0.015678 -0.14331 -0.29097 0.62468 0.42168 0.052493 -0.27458 -0.31576 0.16687 -0.12452 -0.060519 -0.030668 0.11057 0.017235 0.3663 -0.1334 0.57456 -0.23809 -0.36798 0.0011804 -0.061866 0.44215 0.1899 0.093043 
마법을 0.23734 -0.08541 0.67148 -0.10315 -0.17752 -0.10626 0.16079 -0.071533 -0.042134 -0.21587 0.070727 -0.17255 -0.044591 0.26248 0.053293 -0.063245 0.14523 -0.31389 0.055318 -0.17949 0.23106 -0.048981 0.019083 0.091356 0.31189 0.088285 0.23586 -0.028672 -0.1398 0.39649 -0.10463 -0.024901 -0.058693 0.59629 -0.53539 0.04155 -0.059676 -0.34232 -0.3709 -0.086411 -0.1253 0.058163 0.15652 -0.45454 0.22999 0.053272 -0.15987 0.11111 0.030319 0.32859 -0.56059 -0.22513 0.42582 0.078152 -0.42954 -0.17113 -0.053013 0.080479 -0.7323 0.091057 -0.36486 -0.252 0.37799 -0.5065 0.54358 -0.034919 -0.19505 -0.21635 0.084663 0.19314 -0.14837 -0.13725 0.092959 -0.070318 0.22523 0.073227 0.013378 -0.17228 -0.34295 0.73242 0.4948 0.065412 -0.32136 -0.3784 0.18155 -0.15121 -0.066672 -0.044217 0.14316 0.013526 0.43122 -0.15567 0.67206 -0.28493 -0.42811 0.001833 -0.077875 0.51867 0.22879 0.10729 
그녀는 0.22752 -0.097727 0.64116 -0.10055 -0.17226 -0.10537 0.15749 -0.072676 -0.041422 -0.20536 0.067487 -0.16424 -0.041671 0.24396 0.054478 -0.062486 0.14035 -0.29643 0.057724 -0.17146 0.22044 -0.053167 0.014534 0.08898 0.29898 0.092385 0.23567 -0.027434 -0.13206 0.38451 -0.095426 -0.022339 -0.048238 0.5786 -0.51631 0.037621 -0.062919 -0.32463 -0.35503 -0.081011 -0.12496 0.05394 0.14895 -0.42896 0.22842 0.048169 -0.15685 0.10509 0.028592 0.31878 -0.53336 -0.21327 0.41052 0.0717 -0.40959 -0.16846 -0.046996 0.0792 -0.70729 0.085677 -0.35433 -0.24446 0.35657 -0.49064 0.52364 -0.023904 -0.18925 -0.21647 0.077877 0.17399 -0.1408 -0.12839 0.096574 -0.076198 0.21689 0.06825 0.015768 -0.16137 -0.32222 0.70554 0.47577 0.058072 -0.31242 -0.36082 0.19122 -0.14398 -0.06838 -0.033163 0.13663 0.021463 0.41454 -0.15439 0.64303 -0.26893 -0.41556 0.0027216 -0.073694 0.50246 0.2095 0.10627 
없었다. 0.16605 -0.070035 0.4509 -0.076905 -0.12613 -0.07881 0.11899 -0.050145 -0.020368 -0.15386 0.047183 -0.11945 -0.029912 0.16994 0.040657 -0.044184 0.098663 -0.20963 0.04295 -0.12127 0.15415 -0.036869 0.016088 0.064291 0.21501 0.062831 0.16821 -0.021461 -0.090027 0.28214 -0.062256 -0.009671 -0.039144 0.40713 -0.36769 0.025963 -0.057171 -0.24267 -0.25999 -0.063851 -0.092105 0.038345 0.11683 -0.3048 0.16222 0.025151 -0.11469 0.073223 0.012785 0.22937 -0.37491 -0.14749 0.2895 0.047149 -0.29128 -0.12313 -0.033849 0.050273 -0.50687 0.058339 -0.2628 -0.17003 0.254 -0.349 0.36867 -0.017188 -0.13716 -0.14913 0.044231 0.12052 -0.10308 -0.092227 0.074323 -0.052612 0.15137 0.048301 0.0049481 -0.1191 -0.23418 0.50016 0.34542 0.045666 -0.2189 -0.25835 0.13787 -0.097598 -0.056838 -0.022548 0.090638 0.014668 0.29176 -0.10976 0.46212 -0.18948 -0.30804 0.0024687 -0.052271 0.35653 0.1526 0.083426 
것 0.22558 -0.093234 0.63283 -0.099822 -0.16033 -0.10469 0.15459 -0.078598 -0.044787 -0.21026 0.070738 -0.15809 -0.042674 0.24986 0.050662 -0.062949 0.13526 -0.28826 0.060319 -0.17004 0.22489 -0.04772 0.01581 0.077972 0.29919 0.090897 0.23524 -0.028369 -0.12553 0.38596 -0.091778 -0.013976 -0.048907 0.56585 -0.51242 0.036245 -0.060365 -0.32251 -0.3619 -0.09034 -0.12777 0.054447 0.14462 -0.4269 0.21912 0.042251 -0.16012 0.10368 0.02533 0.31489 -0.53095 -0.21698 0.40601 0.070759 -0.40625 -0.16575 -0.052619 0.086899 -0.70996 0.090424 -0.3481 -0.23935 0.354 -0.48403 0.51427 -0.024531 -0.19571 -0.20891 0.084333 0.17389 -0.13157 -0.12791 0.10283 -0.064914 0.20297 0.066472 0.022831 -0.16143 -0.32529 0.70471 0.47407 0.063396 -0.29844 -0.35789 0.17803 -0.13682 -0.06224 -0.033548 0.13693 0.023589 0.40852 -0.15034 0.63869 -0.2772 -0.40504 -0.0037372 -0.070192 0.49847 0.21768 0.10795 
말을 0.23723 -0.096203 0.6794 -0.10447 -0.17828 -0.11345 0.16432 -0.079566 -0.038543 -0.21306 0.068655 -0.1742 -0.045304 0.2631 0.058293 -0.064895 0.14645 -0.3129 0.057779 -0.18777 0.23525 -0.054806 0.014251 0.090946 0.31519 0.098063 0.24663 -0.033939 -0.13617 0.40639 -0.093129 -0.02134 -0.060336 0.60851 -0.5518 0.044147 -0.07605 -0.34662 -0.38408 -0.094171 -0.13545 0.058398 0.16438 -0.45407 0.23769 0.056027 -0.16294 0.11173 0.028055 0.3364 -0.56703 -0.22797 0.43077 0.08036 -0.42885 -0.17122 -0.046046 0.082819 -0.74666 0.096129 -0.37744 -0.2514 0.38101 -0.51571 0.54612 -0.026903 -0.20018 -0.22561 0.082897 0.19029 -0.14962 -0.13508 0.10236 -0.069269 0.22167 0.073512 0.022326 -0.16733 -0.34464 0.74113 0.51179 0.061014 -0.32504 -0.37787 0.18966 -0.15462 -0.075426 -0.03974 0.14799 0.019034 0.43204 -0.16617 0.67993 -0.28403 -0.44048 -0.0028095 -0.076279 0.52431 0.22601 0.11494 
플로렌스 0.19086 -0.072583 0.53605 -0.082882 -0.14129 -0.091388 0.12335 -0.062475 -0.033211 -0.16838 0.058208 -0.13431 -0.032766 0.20675 0.04238 -0.050265 0.12072 -0.24882 0.041918 -0.148 0.18443 -0.043434 0.014589 0.073425 0.24604 0.07781 0.19428 -0.022945 -0.10888 0.31914 -0.082665 -0.016423 -0.044952 0.48016 -0.43582 0.0317 -0.049961 -0.26916 -0.30526 -0.066497 -0.10583 0.046902 0.11992 -0.3611 0.18283 0.043924 -0.122 0.094164 0.024424 0.26211 -0.44986 -0.17542 0.33665 0.06515 -0.33994 -0.1451 -0.042367 0.065259 -0.5854 0.081163 -0.29045 -0.19646 0.29821 -0.40136 0.43448 -0.02552 -0.15941 -0.17305 0.076396 0.15629 -0.11677 -0.1161 0.080748 -0.05733 0.17911 0.053708 0.014243 -0.13186 -0.27241 0.59004 0.39681 0.051404 -0.2565 -0.29945 0.14743 -0.12314 -0.051237 -0.032185 0.11422 0.015646 0.34202 -0.12574 0.53378 -0.22613 -0.33843 0.00071822 -0.067823 0.42017 0.17733 0.089382 
그런 0.21411 -0.083888 0.61158 -0.098483 -0.16763 -0.093947 0.14438 -0.067549 -0.038798 -0.19835 0.064213 -0.15689 -0.040568 0.23982 0.046479 -0.054477 0.13418 -0.28322 0.046748 -0.16069 0.21034 -0.051194 0.013783 0.084771 0.29234 0.087707 0.21873 -0.030237 -0.12725 0.37168 -0.089289 -0.018621 -0.046686 0.55315 -0.49759 0.040782 -0.05918 -0.31739 -0.34358 -0.082378 -0.11972 0.058665 0.14552 -0.41434 0.22419 0.043856 -0.14792 0.093846 0.028746 0.30899 -0.50992 -0.2049 0.39021 0.07089 -0.39567 -0.15699 -0.040932 0.076348 -0.68125 0.081173 -0.34202 -0.23143 0.34504 -0.46791 0.49081 -0.025436 -0.17803 -0.20186 0.076738 0.17067 -0.13894 -0.12277 0.09539 -0.070962 0.20775 0.068608 0.017603 -0.15646 -0.30642 0.67148 0.46061 0.057401 -0.29834 -0.33777 0.17619 -0.13035 -0.059636 -0.035976 0.12886 0.017665 0.39214 -0.14239 0.61512 -0.25964 -0.39213 0.0090524 -0.069872 0.47674 0.20332 0.10191 
반아에게 0.2212 -0.087129 0.62716 -0.10188 -0.16404 -0.10305 0.1505 -0.065098 -0.034732 -0.20322 0.066915 -0.15939 -0.042288 0.24103 0.050771 -0.059682 0.13578 -0.29093 0.053885 -0.17162 0.21083 -0.05474 0.017606 0.091242 0.29382 0.088871 0.22928 -0.027939 -0.12781 0.37801 -0.091899 -0.017132 -0.052533 0.5621 -0.50911 0.038502 -0.059314 -0.32552 -0.35342 -0.083874 -0.12307 0.0513 0.15007 -0.4183 0.22178 0.048728 -0.15404 0.10358 0.020952 0.31583 -0.5187 -0.20677 0.39946 0.071997 -0.40135 -0.16325 -0.039905 0.074443 -0.69374 0.080939 -0.34745 -0.23408 0.34762 -0.47819 0.50565 -0.022469 -0.18781 -0.20771 0.074026 0.17065 -0.13778 -0.12619 0.094054 -0.071021 0.2067 0.071389 0.01843 -0.16222 -0.31932 0.69053 0.46929 0.060474 -0.29928 -0.35063 0.17933 -0.13819 -0.067051 -0.034654 0.12677 0.020223 0.39994 -0.14889 0.62695 -0.26177 -0.40205 0.0024509 -0.068798 0.48639 0.20935 0.10322 
고개를 0.19796 -0.073894 0.54769 -0.08699 -0.14858 -0.088121 0.13461 -0.059224 -0.034586 -0.17365 0.056378 -0.14375 -0.041241 0.21331 0.04087 -0.053988 0.11908 -0.26026 0.046412 -0.14478 0.19043 -0.050001 0.011853 0.073902 0.25932 0.075728 0.20321 -0.024864 -0.11425 0.32908 -0.077289 -0.02201 -0.047401 0.495 -0.44615 0.029434 -0.054839 -0.28003 -0.30819 -0.0723 -0.10506 0.05321 0.13447 -0.36838 0.18689 0.04243 -0.13637 0.089062 0.022207 0.2743 -0.45628 -0.1874 0.35001 0.063657 -0.35623 -0.14841 -0.038843 0.068104 -0.61158 0.074798 -0.30449 -0.20374 0.30564 -0.42149 0.44423 -0.023433 -0.16013 -0.18532 0.066589 0.15538 -0.12472 -0.11632 0.08589 -0.058119 0.18519 0.061317 0.012215 -0.13721 -0.28069 0.60338 0.41106 0.053324 -0.26923 -0.30692 0.161 -0.12439 -0.053873 -0.035203 0.11619 0.020972 0.35217 -0.12982 0.54836 -0.2295 -0.35585 -0.00296 -0.062136 0.43005 0.18197 0.094608 
그가 0.25071 -0.09262 0.67593 -0.11338 -0.18025 -0.11449 0.16527 -0.073585 -0.036259 -0.22475 0.073971 -0.17786 -0.045495 0.26747 0.049429 -0.065485 0.14601 -0.31759 0.054517 -0.18317 0.23614 -0.054735 0.014214 0.090005 0.31921 0.09505 0.24731 -0.029202 -0.14788 0.41478 -0.10407 -0.025245 -0.05546 0.61315 -0.55355 0.03975 -0.067563 -0.35292 -0.38374 -0.083871 -0.13093 0.052813 0.16075 -0.45617 0.23703 0.052561 -0.16674 0.11579 0.024985 0.3369 -0.57577 -0.23157 0.43521 0.072682 -0.43848 -0.17726 -0.052195 0.081566 -0.75622 0.091279 -0.37739 -0.25571 0.37788 -0.52146 0.55064 -0.023488 -0.20297 -0.22438 0.0876 0.1929 -0.14787 -0.137 0.10218 -0.070455 0.22404 0.073088 0.020425 -0.17004 -0.35133 0.74681 0.51152 0.061733 -0.32617 -0.38205 0.19964 -0.15398 -0.073765 -0.045233 0.14482 0.022203 0.43556 -0.16508 0.68021 -0.28271 -0.43933 0.0018669 -0.08108 0.53558 0.2299 0.1073 
륜이 0.24119 -0.095475 0.69021 -0.11552 -0.1821 -0.11659 0.16204 -0.076839 -0.042323 -0.22272 0.072824 -0.17184 -0.044042 0.27281 0.05508 -0.072689 0.14854 -0.31819 0.058281 -0.18968 0.23844 -0.056602 0.015079 0.097097 0.31946 0.10177 0.24937 -0.025955 -0.14162 0.4185 -0.096295 -0.021458 -0.051622 0.62371 -0.56402 0.04416 -0.068879 -0.35445 -0.39442 -0.092322 -0.13249 0.064194 0.16183 -0.46158 0.2406 0.050631 -0.16582 0.11629 0.019857 0.34457 -0.57969 -0.23141 0.44262 0.077816 -0.44057 -0.18233 -0.0522 0.078902 -0.76286 0.093999 -0.38658 -0.2617 0.3878 -0.52661 0.5633 -0.028061 -0.20497 -0.22486 0.087224 0.19161 -0.15666 -0.13791 0.1056 -0.074219 0.23183 0.067877 0.012523 -0.17428 -0.35504 0.76322 0.52081 0.069566 -0.33214 -0.39047 0.20372 -0.15751 -0.066284 -0.038233 0.14336 0.018876 0.43932 -0.1614 0.69124 -0.28692 -0.44773 -0.0012927 -0.079629 0.53929 0.23361 0.11667 
보고 0.23352 -0.09547 0.65479 -0.10027 -0.1692 -0.10299 0.16296 -0.067878 -0.032855 -0.2069 0.065667 -0.16078 -0.047464 0.26114 0.053436 -0.063353 0.14086 -0.29701 0.057823 -0.17584 0.21952 -0.050844 0.013556 0.087984 0.30448 0.096222 0.2349 -0.026799 -0.13557 0.39709 -0.095588 -0.020753 -0.0546 0.5922 -0.52374 0.041348 -0.062336 -0.33514 -0.36558 -0.080527 -0.13299 0.056038 0.16234 -0.44212 0.22825 0.049705 -0.15622 0.10594 0.019507 0.3237 -0.54404 -0.21586 0.41989 0.075396 -0.42198 -0.17504 -0.047777 0.082204 -0.72245 0.086728 -0.36713 -0.24822 0.36367 -0.49756 0.53194 -0.026961 -0.1958 -0.21865 0.083776 0.18034 -0.15009 -0.12899 0.1015 -0.071353 0.22125 0.061585 0.021289 -0.15947 -0.33237 0.71648 0.48232 0.064711 -0.3137 -0.36546 0.1898 -0.14162 -0.065332 -0.044906 0.14115 0.019033 0.41767 -0.15512 0.65486 -0.27963 -0.42452 0.0018071 -0.079232 0.50553 0.21656 0.11273 
그를 0.20716 -0.086303 0.59106 -0.097763 -0.15499 -0.10499 0.14829 -0.056067 -0.035753 -0.19534 0.058898 -0.15163 -0.03898 0.22914 0.052434 -0.057465 0.12348 -0.2758 0.053354 -0.1566 0.20648 -0.047711 0.01401 0.087585 0.28149 0.08117 0.21957 -0.023796 -0.11998 0.35186 -0.083377 -0.022622 -0.043253 0.53709 -0.47762 0.038069 -0.059093 -0.30805 -0.33749 -0.071741 -0.11564 0.049103 0.13605 -0.39885 0.20744 0.050036 -0.13905 0.095948 0.025814 0.29615 -0.49964 -0.19296 0.38204 0.065911 -0.37924 -0.16054 -0.04291 0.073026 -0.65765 0.080409 -0.32967 -0.2292 0.33398 -0.45368 0.47703 -0.019056 -0.17756 -0.19423 0.069025 0.15925 -0.13458 -0.12172 0.082881 -0.061834 0.19646 0.059898 0.011892 -0.15164 -0.30672 0.6533 0.44047 0.055594 -0.2878 -0.3301 0.17054 -0.13113 -0.069388 -0.035019 0.12116 0.018932 0.38295 -0.14537 0.60154 -0.24594 -0.38394 0.000898 -0.066599 0.45951 0.19697 0.095488 
입을 0.21805 -0.086011 0.625 -0.10085 -0.16519 -0.1007 0.15079 -0.068605 -0.033356 -0.20251 0.068298 -0.15264 -0.039194 0.23463 0.048716 -0.060722 0.13419 -0.29073 0.059141 -0.16912 0.21127 -0.051715 0.01805 0.08516 0.28953 0.082865 0.22966 -0.028185 -0.13187 0.37881 -0.088215 -0.013348 -0.05194 0.55658 -0.50269 0.032616 -0.06367 -0.32502 -0.34764 -0.086838 -0.12066 0.051117 0.14751 -0.42149 0.21598 0.045843 -0.14453 0.098236 0.017125 0.31015 -0.52805 -0.21231 0.39844 0.075471 -0.3991 -0.16067 -0.051457 0.07548 -0.68293 0.080435 -0.34596 -0.24358 0.34429 -0.47708 0.50334 -0.021823 -0.18586 -0.20667 0.081469 0.17157 -0.13952 -0.12457 0.090533 -0.069407 0.20407 0.063748 0.0095287 -0.16156 -0.31703 0.68069 0.46671 0.064388 -0.30317 -0.35257 0.17562 -0.14191 -0.071109 -0.034031 0.12698 0.019307 0.40017 -0.14436 0.6265 -0.26516 -0.40031 -0.0011526 -0.066974 0.49072 0.2113 0.10663 
눈을 0.20808 -0.083668 0.58219 -0.095994 -0.15316 -0.095255 0.14101 -0.066365 -0.032895 -0.1898 0.061973 -0.1476 -0.037758 0.22451 0.044289 -0.054765 0.12151 -0.27416 0.048011 -0.15684 0.19826 -0.04962 0.013688 0.081889 0.27484 0.083851 0.20839 -0.028114 -0.11819 0.34852 -0.091209 -0.02682 -0.051382 0.52638 -0.47085 0.038668 -0.058773 -0.30591 -0.33679 -0.072344 -0.11097 0.049847 0.1341 -0.38685 0.2048 0.036486 -0.13979 0.098292 0.025582 0.28749 -0.48702 -0.19766 0.37503 0.065853 -0.37708 -0.14873 -0.046283 0.069312 -0.65011 0.076476 -0.32804 -0.22183 0.32857 -0.44855 0.46617 -0.017525 -0.17274 -0.18506 0.072864 0.1645 -0.12779 -0.11883 0.089336 -0.060673 0.1941 0.059414 0.01668 -0.14806 -0.30367 0.64986 0.4393 0.055437 -0.27889 -0.32947 0.16778 -0.135 -0.06891 -0.034845 0.12782 0.021891 0.38291 -0.14112 0.59079 -0.25285 -0.37746 0.00016634 -0.066669 0.45258 0.19491 0.092642 
이내 0.20233 -0.084662 0.57055 -0.092604 -0.15188 -0.098925 0.13419 -0.06268 -0.032277 -0.18144 0.059439 -0.14541 -0.036662 0.22629 0.045328 -0.05847 0.12353 -0.26627 0.050554 -0.15839 0.19732 -0.046336 0.013599 0.081073 0.2669 0.085155 0.20995 -0.027076 -0.12201 0.34453 -0.085652 -0.019045 -0.047325 0.51533 -0.46263 0.036529 -0.05731 -0.29472 -0.33141 -0.073372 -0.1197 0.050034 0.13727 -0.38167 0.19919 0.040578 -0.13597 0.091874 0.022869 0.27931 -0.48289 -0.18998 0.36827 0.069836 -0.36304 -0.15253 -0.04546 0.06467 -0.63434 0.074192 -0.31849 -0.2196 0.31967 -0.43247 0.4646 -0.024907 -0.16557 -0.19069 0.068452 0.15868 -0.13229 -0.1175 0.088661 -0.063456 0.19077 0.056784 0.0141 -0.1438 -0.29307 0.63292 0.43193 0.058897 -0.27277 -0.32375 0.16633 -0.13447 -0.065065 -0.040702 0.12563 0.013203 0.3702 -0.13058 0.57601 -0.2374 -0.36967 -0.0029617 -0.068549 0.45019 0.19347 0.098046 
또 0.21636 -0.081118 0.5928 -0.092564 -0.16521 -0.099537 0.14563 -0.059569 -0.03075 -0.1949 0.066028 -0.15609 -0.046283 0.23737 0.047393 -0.06382 0.13029 -0.27446 0.048534 -0.16768 0.2067 -0.046626 0.0023931 0.078638 0.27741 0.083747 0.21665 -0.029815 -0.11978 0.36599 -0.087044 -0.011965 -0.047928 0.53173 -0.48623 0.040058 -0.058845 -0.30472 -0.32967 -0.078076 -0.11663 0.042685 0.13908 -0.39306 0.21638 0.050609 -0.14832 0.097959 0.019345 0.28898 -0.50017 -0.19705 0.37776 0.062319 -0.37516 -0.15845 -0.04594 0.070045 -0.6513 0.075932 -0.33147 -0.22949 0.33386 -0.44253 0.48062 -0.020986 -0.1736 -0.19949 0.077641 0.16076 -0.13688 -0.11663 0.087037 -0.062761 0.19344 0.068224 0.021623 -0.14753 -0.30379 0.64973 0.43882 0.051472 -0.2855 -0.32235 0.1775 -0.13778 -0.060516 -0.039925 0.12442 0.020116 0.37826 -0.13904 0.60128 -0.24323 -0.37961 0.0025526 -0.070288 0.46374 0.19889 0.10107 
보았다. 0.23808 -0.097553 0.64509 -0.11019 -0.18083 -0.1127 0.16254 -0.069405 -0.027309 -0.20984 0.063092 -0.17111 -0.034983 0.24408 0.049801 -0.06155 0.13367 -0.30255 0.06023 -0.17374 0.21719 -0.052697 0.019653 0.092939 0.29981 0.090859 0.23769 -0.031133 -0.12961 0.39465 -0.095252 -0.024859 -0.053404 0.58473 -0.51774 0.036991 -0.073892 -0.34097 -0.36651 -0.08981 -0.12603 0.051695 0.16283 -0.42914 0.2263 0.041424 -0.15858 0.10119 0.02513 0.32516 -0.53366 -0.21408 0.41077 0.068011 -0.41407 -0.17298 -0.044938 0.07728 -0.71971 0.083488 -0.37178 -0.24473 0.35723 -0.49682 0.52871 -0.025836 -0.1945 -0.209 0.069035 0.17376 -0.14287 -0.12526 0.097583 -0.075141 0.21618 0.066574 0.014635 -0.16267 -0.33285 0.71147 0.48199 0.07268 -0.3086 -0.36288 0.19452 -0.13817 -0.077168 -0.03617 0.13071 0.02248 0.41612 -0.15674 0.65253 -0.2694 -0.42838 0.0048781 -0.072309 0.49791 0.21628 0.11045 
하는 0.24537 -0.10061 0.69787 -0.11151 -0.18864 -0.11908 0.16289 -0.078801 -0.042274 -0.22585 0.072163 -0.17553 -0.043984 0.27286 0.057549 -0.070938 0.15079 -0.31777 0.055483 -0.18766 0.23774 -0.058516 0.013561 0.094909 0.31994 0.098225 0.25303 -0.03669 -0.14336 0.42047 -0.10296 -0.024603 -0.058671 0.62524 -0.56821 0.049303 -0.065344 -0.36006 -0.38751 -0.088078 -0.1334 0.057557 0.16333 -0.46424 0.24407 0.055349 -0.17108 0.11405 0.026092 0.33925 -0.57973 -0.22867 0.43708 0.074747 -0.44427 -0.1763 -0.045245 0.085255 -0.76552 0.089835 -0.38735 -0.26576 0.3864 -0.53064 0.56255 -0.030199 -0.20578 -0.22829 0.085078 0.19714 -0.15223 -0.14048 0.10275 -0.079353 0.2334 0.078151 0.023017 -0.17798 -0.36035 0.76673 0.51216 0.066562 -0.32865 -0.38873 0.20751 -0.15608 -0.069583 -0.046219 0.15125 0.024903 0.44422 -0.15792 0.69491 -0.29052 -0.45075 0.0045326 -0.075792 0.54302 0.23033 0.12026 
하지만 0.25733 -0.0947 0.71917 -0.118 -0.19281 -0.11882 0.17379 -0.075946 -0.044315 -0.2305 0.075611 -0.18669 -0.048931 0.27969 0.058711 -0.068263 0.1516 -0.3312 0.065419 -0.19667 0.24389 -0.058243 0.015335 0.095273 0.33985 0.10001 0.26365 -0.028786 -0.1554 0.43648 -0.10601 -0.026512 -0.056094 0.6416 -0.58511 0.047615 -0.069043 -0.37384 -0.40181 -0.093242 -0.13851 0.063263 0.17517 -0.48328 0.25263 0.057731 -0.1709 0.11688 0.027354 0.35235 -0.60439 -0.23793 0.46551 0.077743 -0.46201 -0.18811 -0.050197 0.089045 -0.79546 0.095555 -0.40051 -0.27177 0.40304 -0.54704 0.57995 -0.029379 -0.21573 -0.23519 0.091652 0.19761 -0.16212 -0.14722 0.10343 -0.075595 0.24201 0.078117 0.018273 -0.17789 -0.36427 0.79227 0.53584 0.070094 -0.34889 -0.40199 0.20694 -0.16502 -0.075061 -0.040416 0.15318 0.023876 0.46296 -0.17052 0.72347 -0.30663 -0.46444 0.0034552 -0.084076 0.56197 0.24197 0.1229 
" 0.12939 -0.046255 0.3475 -0.059701 -0.088919 -0.065665 0.079265 -0.035879 -0.020418 -0.11551 0.031009 -0.084491 -0.024716 0.13382 0.023593 -0.032302 0.074593 -0.15878 0.028016 -0.10157 0.12434 -0.035049 0.0073949 0.052111 0.161 0.042846 0.12363 -0.0069422 -0.071269 0.20766 -0.05327 -0.015944 -0.026466 0.31477 -0.28281 0.029533 -0.035387 -0.18076 -0.20121 -0.047506 -0.061812 0.034604 0.077484 -0.23556 0.11981 0.024932 -0.077843 0.057672 0.021357 0.17302 -0.30293 -0.11665 0.23006 0.042019 -0.22739 -0.092311 -0.020681 0.040477 -0.38667 0.043889 -0.1947 -0.13163 0.19877 -0.26641 0.28488 -0.015064 -0.1099 -0.11697 0.044756 0.10415 -0.079708 -0.07508 0.046143 -0.040202 0.11796 0.043505 0.0078611 -0.087972 -0.18266 0.38514 0.26287 0.034619 -0.17058 -0.19238 0.096619 -0.085837 -0.033065 -0.016045 0.077163 0.010333 0.22551 -0.077796 0.3523 -0.13755 -0.22167 -0.0064757 -0.042344 0.27951 0.11751 0.057748 
더 0.19513 -0.079954 0.54333 -0.086116 -0.14234 -0.089888 0.12531 -0.056306 -0.033168 -0.16842 0.056495 -0.13744 -0.031066 0.2141 0.046004 -0.055726 0.12133 -0.25251 0.040108 -0.15289 0.18348 -0.048597 0.015652 0.068028 0.25573 0.081214 0.1948 -0.025166 -0.11645 0.33005 -0.078927 -0.02581 -0.044398 0.49161 -0.44698 0.039128 -0.054616 -0.28585 -0.30593 -0.074014 -0.10286 0.043233 0.13426 -0.35928 0.1965 0.037975 -0.13359 0.093685 0.016743 0.27766 -0.44977 -0.18605 0.34396 0.064338 -0.34411 -0.13956 -0.043651 0.060547 -0.5971 0.0752 -0.29426 -0.21082 0.30347 -0.4088 0.44074 -0.027401 -0.1655 -0.1773 0.067769 0.14711 -0.12016 -0.11243 0.079845 -0.055956 0.18216 0.063526 0.013658 -0.13708 -0.27266 0.59539 0.40968 0.048764 -0.26299 -0.30873 0.15504 -0.12094 -0.063914 -0.028287 0.11594 0.020448 0.34815 -0.1322 0.54282 -0.23235 -0.34606 0.0059892 -0.062204 0.427 0.18147 0.094906 
마법학교 0.2472 -0.084872 0.70135 -0.10292 -0.18996 -0.10803 0.16202 -0.089685 -0.043045 -0.22089 0.077382 -0.17676 -0.039735 0.27751 0.065631 -0.05915 0.1566 -0.32865 0.05221 -0.18232 0.24679 -0.056283 0.023155 0.093654 0.31698 0.095375 0.24978 -0.037708 -0.14921 0.40231 -0.11611 -0.031433 -0.064195 0.62059 -0.56364 0.044511 -0.062968 -0.35316 -0.39633 -0.093995 -0.13461 0.067198 0.14757 -0.47921 0.2306 0.053505 -0.15718 0.11574 0.045057 0.33945 -0.58384 -0.23575 0.43396 0.082526 -0.45345 -0.17831 -0.054645 0.079518 -0.76053 0.10217 -0.37528 -0.25383 0.39001 -0.52389 0.56445 -0.037789 -0.20428 -0.21163 0.095512 0.21048 -0.14959 -0.15012 0.10024 -0.072919 0.22568 0.080367 0.025384 -0.17333 -0.36418 0.76577 0.52166 0.066358 -0.33278 -0.39755 0.17365 -0.14843 -0.062682 -0.044886 0.15199 0.017929 0.44648 -0.15497 0.69834 -0.28908 -0.43622 0.0034954 -0.085493 0.54979 0.2406 0.11263 
다른 0.22795 -0.081911 0.6192 -0.10025 -0.17013 -0.10635 0.14912 -0.067151 -0.036513 -0.20158 0.062154 -0.15758 -0.044257 0.24621 0.050631 -0.063346 0.13514 -0.29173 0.052281 -0.17178 0.21584 -0.054445 0.015677 0.087204 0.29456 0.089762 0.2253 -0.028505 -0.13579 0.37508 -0.095421 -0.021191 -0.052831 0.56183 -0.50562 0.035006 -0.063574 -0.31928 -0.34997 -0.078701 -0.11827 0.052712 0.14756 -0.42239 0.22633 0.047867 -0.15316 0.1062 0.024154 0.30872 -0.5209 -0.20793 0.40227 0.074889 -0.39459 -0.16289 -0.043873 0.077468 -0.69538 0.086682 -0.34323 -0.23897 0.34849 -0.47307 0.50083 -0.022834 -0.18945 -0.20307 0.08479 0.1749 -0.13633 -0.13162 0.096673 -0.069892 0.20847 0.063828 0.018468 -0.15703 -0.31633 0.68964 0.46466 0.062166 -0.2942 -0.3551 0.17888 -0.13849 -0.064285 -0.042271 0.12972 0.018583 0.40272 -0.15247 0.62974 -0.25634 -0.40378 -0.0082162 -0.065288 0.48791 0.20853 0.1076 
몸을 0.21502 -0.079906 0.59502 -0.098291 -0.15609 -0.10072 0.1442 -0.060385 -0.033544 -0.19159 0.065384 -0.14646 -0.040303 0.23443 0.046682 -0.061401 0.13304 -0.27659 0.049019 -0.15714 0.20305 -0.047913 0.0093618 0.086678 0.27144 0.084384 0.21401 -0.024996 -0.12328 0.35631 -0.086645 -0.01994 -0.050184 0.52737 -0.47787 0.035778 -0.056006 -0.30212 -0.33487 -0.078248 -0.11712 0.051427 0.1372 -0.3984 0.21252 0.044561 -0.13778 0.099944 0.021659 0.29216 -0.49061 -0.19405 0.3845 0.060558 -0.37841 -0.156 -0.041137 0.07176 -0.64927 0.078931 -0.32958 -0.22574 0.33802 -0.45459 0.48172 -0.0216 -0.17791 -0.19019 0.07525 0.16274 -0.13196 -0.11809 0.092766 -0.067556 0.20122 0.062309 0.014753 -0.15287 -0.30609 0.64865 0.43466 0.059665 -0.28986 -0.33168 0.1693 -0.13553 -0.068061 -0.039185 0.12661 0.021255 0.37952 -0.14204 0.59494 -0.25172 -0.38523 0.0048899 -0.06517 0.45885 0.19578 0.099082 
같았다. 0.18469 -0.074346 0.49462 -0.088236 -0.13554 -0.085428 0.12527 -0.060785 -0.021013 -0.16348 0.054679 -0.1323 -0.02711 0.18735 0.041105 -0.049629 0.10352 -0.22928 0.0446 -0.13428 0.16456 -0.040495 0.016055 0.070998 0.23515 0.06613 0.18105 -0.020276 -0.093166 0.29909 -0.070922 -0.016258 -0.041977 0.44189 -0.3961 0.024757 -0.059379 -0.25703 -0.27896 -0.067424 -0.09416 0.045473 0.12142 -0.32919 0.17382 0.030722 -0.1226 0.075546 0.015261 0.25426 -0.40577 -0.16476 0.31378 0.056298 -0.31443 -0.12786 -0.034946 0.055958 -0.54832 0.062085 -0.27827 -0.18524 0.27375 -0.38159 0.40522 -0.024069 -0.14653 -0.1627 0.053514 0.13249 -0.11001 -0.098659 0.074484 -0.058822 0.16341 0.052238 0.0085819 -0.12672 -0.25691 0.54655 0.36787 0.055754 -0.23642 -0.27393 0.14648 -0.1056 -0.059561 -0.023851 0.094419 0.015146 0.319 -0.11734 0.49968 -0.20865 -0.33014 0.001664 -0.05511 0.38317 0.16428 0.084874 
다 0.18376 -0.074904 0.53977 -0.080523 -0.14935 -0.098745 0.12294 -0.059118 -0.027892 -0.17821 0.05694 -0.13237 -0.03826 0.21233 0.039675 -0.05633 0.12106 -0.24627 0.043893 -0.14436 0.187 -0.05402 0.010791 0.081106 0.24764 0.069706 0.1944 -0.027084 -0.11516 0.33016 -0.078924 -0.028158 -0.042473 0.48862 -0.43588 0.039046 -0.057633 -0.27309 -0.3099 -0.068701 -0.11496 0.051124 0.12888 -0.36625 0.18762 0.034405 -0.12414 0.089883 0.013733 0.27288 -0.45183 -0.18685 0.34667 0.063233 -0.34868 -0.1393 -0.046424 0.071799 -0.59799 0.072178 -0.30349 -0.20544 0.30397 -0.41521 0.43894 -0.022401 -0.15593 -0.17992 0.074432 0.15186 -0.11375 -0.10654 0.085567 -0.064067 0.18134 0.058262 0.014089 -0.14217 -0.27673 0.58994 0.40865 0.056631 -0.25734 -0.29364 0.16479 -0.1189 -0.055122 -0.037488 0.11819 0.0097229 0.35547 -0.13383 0.54774 -0.22394 -0.35499 0.0067262 -0.063756 0.4235 0.18261 0.084515 
그렇게 0.18897 -0.071281 0.52646 -0.084651 -0.14156 -0.086164 0.12659 -0.056425 -0.029946 -0.17042 0.05712 -0.13312 -0.033449 0.2064 0.041896 -0.055599 0.11369 -0.24547 0.045018 -0.14458 0.17833 -0.047074 0.012862 0.073521 0.24754 0.071759 0.18993 -0.02559 -0.10757 0.31972 -0.078136 -0.018833 -0.04227 0.47399 -0.42835 0.033985 -0.048025 -0.27074 -0.29644 -0.068823 -0.098986 0.045693 0.11934 -0.35249 0.1865 0.040341 -0.12863 0.089341 0.01979 0.26268 -0.43858 -0.17397 0.33558 0.062661 -0.33473 -0.13461 -0.034331 0.067196 -0.58553 0.073826 -0.28853 -0.19929 0.29354 -0.39964 0.42784 -0.020126 -0.15373 -0.17099 0.068101 0.1474 -0.12055 -0.11068 0.081105 -0.059491 0.17593 0.055792 0.019475 -0.13689 -0.26965 0.5801 0.39298 0.048853 -0.25008 -0.29392 0.1538 -0.11523 -0.048467 -0.030924 0.11211 0.019362 0.338 -0.12308 0.52916 -0.22666 -0.34003 0.0035456 -0.061168 0.41317 0.17687 0.086354 
이 0.17724 -0.069964 0.49644 -0.072708 -0.13262 -0.085431 0.1245 -0.054897 -0.024741 -0.16066 0.053935 -0.12335 -0.030221 0.19032 0.038935 -0.046544 0.10785 -0.22776 0.043532 -0.13743 0.17222 -0.044498 0.014598 0.065317 0.23194 0.067852 0.18431 -0.019099 -0.10506 0.29931 -0.071087 -0.017327 -0.041027 0.44631 -0.3986 0.030372 -0.050717 -0.25575 -0.2832 -0.065778 -0.095521 0.048027 0.11866 -0.33445 0.17884 0.032676 -0.11052 0.080884 0.02383 0.24344 -0.4171 -0.16167 0.31497 0.055993 -0.31104 -0.13777 -0.030718 0.060255 -0.55581 0.065674 -0.27753 -0.19289 0.27709 -0.3794 0.40287 -0.01975 -0.14877 -0.16048 0.062546 0.13163 -0.11133 -0.10238 0.071166 -0.061993 0.17314 0.055471 0.014506 -0.12643 -0.24826 0.53884 0.37023 0.046099 -0.23501 -0.28167 0.14392 -0.11246 -0.052049 -0.030746 0.10584 0.01516 0.31484 -0.12003 0.49879 -0.20374 -0.31267 0.0070836 -0.056746 0.38293 0.16669 0.080913 
륜 0.20805 -0.078486 0.60448 -0.10481 -0.16148 -0.098327 0.14723 -0.062554 -0.036043 -0.20522 0.069761 -0.15722 -0.040339 0.23614 0.049486 -0.056497 0.13547 -0.28353 0.054613 -0.15842 0.21131 -0.048811 0.0063319 0.090318 0.28859 0.086507 0.22269 -0.037321 -0.11984 0.3582 -0.083763 -0.025281 -0.055556 0.53623 -0.48782 0.041769 -0.061398 -0.30591 -0.33679 -0.074425 -0.11566 0.054143 0.13929 -0.41171 0.21742 0.052935 -0.14228 0.10191 0.012042 0.29224 -0.51257 -0.19933 0.3863 0.08078 -0.3912 -0.15083 -0.039 0.078625 -0.66662 0.078019 -0.32852 -0.22856 0.32953 -0.45899 0.48483 -0.026294 -0.17856 -0.20394 0.07522 0.16184 -0.13483 -0.12743 0.088681 -0.074481 0.19565 0.066288 0.02323 -0.15334 -0.31113 0.66518 0.45818 0.05507 -0.28989 -0.33989 0.17961 -0.12771 -0.062472 -0.039733 0.11846 0.017476 0.38398 -0.13254 0.60665 -0.25189 -0.39037 0.0032857 -0.068206 0.47455 0.19233 0.09588 
한 0.24865 -0.089896 0.69292 -0.10604 -0.18216 -0.1221 0.15941 -0.080685 -0.034161 -0.21998 0.073947 -0.16978 -0.052158 0.2677 0.049905 -0.059885 0.15164 -0.32201 0.066512 -0.18877 0.23127 -0.059591 0.01539 0.086915 0.31472 0.098554 0.24697 -0.025717 -0.13544 0.41266 -0.10159 -0.016474 -0.060969 0.62497 -0.55112 0.048251 -0.067623 -0.35495 -0.38596 -0.081534 -0.13787 0.060773 0.15761 -0.46856 0.23468 0.054561 -0.1635 0.11888 0.036269 0.33643 -0.57865 -0.22721 0.43925 0.083239 -0.4298 -0.18021 -0.050964 0.081261 -0.76692 0.093401 -0.37198 -0.25806 0.38242 -0.51938 0.55165 -0.025453 -0.20642 -0.23166 0.090428 0.19135 -0.15184 -0.13965 0.099413 -0.071115 0.23236 0.078471 0.019434 -0.17792 -0.35313 0.75107 0.51011 0.063515 -0.32998 -0.37933 0.19449 -0.15019 -0.067033 -0.044503 0.13805 0.020212 0.43839 -0.15674 0.6829 -0.2808 -0.44634 0.0035757 -0.080569 0.53464 0.22969 0.11089 
륜을 0.18432 -0.07317 0.50582 -0.085224 -0.13499 -0.08433 0.12673 -0.04972 -0.026625 -0.16489 0.056076 -0.13316 -0.037151 0.19676 0.042587 -0.050549 0.11484 -0.2407 0.040956 -0.13381 0.17241 -0.041955 0.015909 0.074988 0.23835 0.072127 0.18578 -0.022396 -0.10654 0.31182 -0.071288 -0.015323 -0.039148 0.45895 -0.41308 0.032452 -0.050754 -0.2572 -0.2914 -0.067661 -0.094885 0.046054 0.12046 -0.34015 0.18155 0.03332 -0.1238 0.080686 0.016791 0.24939 -0.42703 -0.16743 0.32952 0.058393 -0.32131 -0.13195 -0.031853 0.061121 -0.56577 0.071258 -0.28566 -0.19594 0.28103 -0.38392 0.41017 -0.021087 -0.1527 -0.16606 0.065343 0.13746 -0.11294 -0.10241 0.075126 -0.054933 0.17584 0.052468 0.012509 -0.12944 -0.26069 0.56126 0.38056 0.045337 -0.2467 -0.28772 0.1521 -0.11528 -0.054011 -0.025 0.10757 0.015445 0.32476 -0.11553 0.51692 -0.21549 -0.33302 0.0011739 -0.059533 0.39443 0.17089 0.089377 
함께 0.19461 -0.077667 0.55322 -0.083637 -0.14572 -0.091167 0.12701 -0.056746 -0.031145 -0.18067 0.057915 -0.14014 -0.036265 0.21858 0.039271 -0.05686 0.12468 -0.25514 0.044828 -0.1533 0.19603 -0.048055 0.0051413 0.08209 0.26136 0.076145 0.20151 -0.023286 -0.11148 0.33135 -0.085657 -0.022636 -0.046576 0.49281 -0.44942 0.032483 -0.054752 -0.28711 -0.31967 -0.076116 -0.10846 0.049449 0.13666 -0.37127 0.19511 0.048363 -0.13865 0.093006 0.025411 0.27004 -0.46074 -0.18515 0.36119 0.060662 -0.35421 -0.13822 -0.039347 0.072356 -0.61291 0.074371 -0.31106 -0.21807 0.31163 -0.4264 0.44248 -0.028933 -0.16798 -0.18142 0.073682 0.15017 -0.11749 -0.11548 0.080848 -0.059178 0.18876 0.058405 0.012846 -0.14512 -0.28477 0.61327 0.41862 0.058497 -0.2681 -0.31321 0.15258 -0.12941 -0.062468 -0.03054 0.11485 0.023508 0.35707 -0.12878 0.56358 -0.23556 -0.35606 0.0019006 -0.058391 0.44064 0.18473 0.093747 
붉은 0.2537 -0.10351 0.71655 -0.11465 -0.18761 -0.11906 0.16844 -0.081393 -0.040965 -0.23424 0.078848 -0.18069 -0.049933 0.27964 0.053503 -0.064988 0.15462 -0.33073 0.058401 -0.19431 0.24625 -0.057716 0.01788 0.10178 0.32989 0.10432 0.26196 -0.033332 -0.1475 0.4341 -0.10747 -0.025824 -0.053514 0.64846 -0.57445 0.051425 -0.070102 -0.36864 -0.40832 -0.095361 -0.13677 0.058796 0.17237 -0.4868 0.24723 0.053877 -0.18019 0.12053 0.028445 0.35082 -0.60197 -0.23472 0.46169 0.086328 -0.45632 -0.18452 -0.051158 0.08543 -0.80192 0.096178 -0.40105 -0.27339 0.40485 -0.54395 0.58219 -0.020895 -0.21736 -0.23586 0.089321 0.20131 -0.16116 -0.14601 0.11326 -0.077802 0.23549 0.072256 0.016934 -0.18324 -0.36499 0.79744 0.53182 0.071093 -0.3395 -0.40382 0.20823 -0.16048 -0.075205 -0.045463 0.15075 0.022544 0.46119 -0.17254 0.71863 -0.30433 -0.4666 -0.0022062 -0.083659 0.56102 0.23853 0.12092 
반공은 0.25823 -0.099646 0.72853 -0.12077 -0.19948 -0.12532 0.17224 -0.079855 -0.037839 -0.23635 0.077731 -0.18626 -0.053073 0.28286 0.052726 -0.070867 0.16261 -0.34031 0.063622 -0.19652 0.24993 -0.062462 0.013685 0.10266 0.34158 0.09869 0.26644 -0.036478 -0.14987 0.44162 -0.10532 -0.021706 -0.06056 0.65673 -0.59071 0.043409 -0.070512 -0.3753 -0.41368 -0.095186 -0.14683 0.066712 0.17629 -0.48732 0.25951 0.05736 -0.17246 0.11979 0.027472 0.36374 -0.60786 -0.24251 0.46803 0.081263 -0.47067 -0.19384 -0.053425 0.08931 -0.80833 0.1001 -0.40508 -0.27364 0.40461 -0.55787 0.59508 -0.031905 -0.2123 -0.23887 0.086754 0.20482 -0.16149 -0.1506 0.10472 -0.076641 0.24542 0.079027 0.024872 -0.18751 -0.37374 0.80466 0.54534 0.068279 -0.35041 -0.41263 0.20834 -0.16551 -0.075688 -0.046482 0.15384 0.022377 0.47013 -0.16931 0.73716 -0.30488 -0.46988 -0.00012405 -0.077389 0.57176 0.24508 0.12868 
칸 0.20872 -0.081438 0.57581 -0.095422 -0.15399 -0.09976 0.14386 -0.063408 -0.02168 -0.19007 0.055743 -0.14404 -0.032467 0.22083 0.041583 -0.053189 0.12169 -0.26195 0.049583 -0.15433 0.20024 -0.046924 0.01686 0.087385 0.26546 0.08107 0.21439 -0.024588 -0.11382 0.35763 -0.080046 -0.018101 -0.044507 0.5159 -0.46515 0.03684 -0.060178 -0.2879 -0.32237 -0.081125 -0.11099 0.057549 0.13371 -0.37966 0.19783 0.045882 -0.13823 0.095319 0.020576 0.28956 -0.48125 -0.19115 0.36339 0.067134 -0.36929 -0.14169 -0.050552 0.069799 -0.63191 0.086726 -0.31094 -0.20906 0.31173 -0.44435 0.47167 -0.018053 -0.16298 -0.19643 0.074376 0.15033 -0.13363 -0.1086 0.086219 -0.065277 0.19194 0.052767 0.01289 -0.14176 -0.29656 0.63819 0.43017 0.053165 -0.27796 -0.32285 0.16271 -0.12866 -0.065606 -0.031603 0.11969 0.021986 0.37813 -0.13895 0.57671 -0.23714 -0.37635 0.0020641 -0.06902 0.44691 0.1945 0.089273 
것이다. 0.1951 -0.080794 0.53787 -0.093597 -0.14889 -0.090972 0.1365 -0.060177 -0.027519 -0.17843 0.057618 -0.14322 -0.032823 0.20528 0.046508 -0.051314 0.11694 -0.24992 0.049845 -0.14711 0.18397 -0.04207 0.011714 0.076141 0.25246 0.075773 0.19682 -0.022867 -0.10866 0.3333 -0.080016 -0.015027 -0.044897 0.48561 -0.43871 0.032065 -0.061508 -0.2818 -0.30652 -0.073686 -0.10357 0.048074 0.13257 -0.3611 0.19065 0.035311 -0.1336 0.090806 0.017668 0.27018 -0.45103 -0.17947 0.3431 0.061944 -0.35008 -0.13985 -0.040135 0.065155 -0.60099 0.068982 -0.30663 -0.20458 0.30071 -0.41183 0.43954 -0.022842 -0.16337 -0.17368 0.059982 0.14893 -0.12108 -0.11016 0.084237 -0.062598 0.18128 0.058167 0.0097672 -0.13637 -0.2724 0.59432 0.40348 0.054758 -0.25747 -0.30499 0.15829 -0.11855 -0.062089 -0.027075 0.11108 0.016052 0.34697 -0.12841 0.54348 -0.22663 -0.35578 0.0078594 -0.062674 0.41833 0.18254 0.091978 
그녀를 0.20911 -0.08635 0.57882 -0.091734 -0.15835 -0.099038 0.14165 -0.063193 -0.034613 -0.18992 0.060238 -0.14483 -0.037627 0.22265 0.046601 -0.056583 0.12549 -0.26617 0.05474 -0.14911 0.19545 -0.052575 0.014447 0.081611 0.27186 0.082221 0.21675 -0.025546 -0.12003 0.34676 -0.083052 -0.022712 -0.046222 0.52143 -0.46825 0.032375 -0.061456 -0.29859 -0.32429 -0.077614 -0.10966 0.05632 0.14255 -0.38782 0.20391 0.040127 -0.13717 0.098326 0.020364 0.29132 -0.48249 -0.19444 0.37377 0.065426 -0.37512 -0.15365 -0.044373 0.068018 -0.64013 0.075969 -0.32321 -0.22124 0.32616 -0.44677 0.46883 -0.019697 -0.17404 -0.19157 0.074203 0.16189 -0.13268 -0.11395 0.087355 -0.065141 0.19452 0.060899 0.014505 -0.14357 -0.29427 0.64108 0.43399 0.05441 -0.27893 -0.32443 0.16948 -0.12829 -0.061078 -0.032059 0.12161 0.017445 0.37811 -0.13787 0.58393 -0.24765 -0.37772 -0.0030911 -0.06945 0.45349 0.1917 0.099746 
학교※ 0.11723 -0.042536 0.31699 -0.042007 -0.079265 -0.053736 0.078081 -0.031846 -0.022122 -0.10311 0.029561 -0.08444 -0.021841 0.12574 0.022764 -0.027735 0.075511 -0.15392 0.016119 -0.087617 0.11009 -0.024758 0.011465 0.030974 0.15416 0.040836 0.11386 -0.012553 -0.070327 0.18801 -0.057978 -0.015448 -0.026143 0.28911 -0.25296 0.026645 -0.028828 -0.16892 -0.17635 -0.037519 -0.070022 0.017579 0.065566 -0.21871 0.10495 0.034275 -0.066947 0.055834 0.029984 0.15617 -0.27063 -0.11007 0.21134 0.041843 -0.20415 -0.084004 -0.018959 0.044918 -0.35448 0.044187 -0.17554 -0.12569 0.17378 -0.23952 0.26106 -0.021323 -0.097758 -0.11699 0.044034 0.10412 -0.06588 -0.066418 0.050164 -0.045013 0.094231 0.031459 0.015856 -0.080919 -0.16056 0.35376 0.23853 0.034334 -0.15095 -0.17084 0.082457 -0.068056 -0.016872 -0.027762 0.067318 0.011822 0.21279 -0.071536 0.3143 -0.12635 -0.20436 0.000598 -0.028721 0.25738 0.1086 0.047894 
레드 0.17888 -0.066699 0.52547 -0.092844 -0.14117 -0.081762 0.12472 -0.0557 -0.028218 -0.17392 0.056436 -0.12501 -0.037486 0.2033 0.041795 -0.051305 0.1075 -0.24869 0.039249 -0.13781 0.18033 -0.038881 0.0048175 0.067365 0.24807 0.068192 0.18848 -0.025627 -0.10794 0.31154 -0.0797 -0.01417 -0.03988 0.46451 -0.41433 0.03447 -0.055717 -0.26922 -0.28313 -0.063296 -0.10383 0.045857 0.12324 -0.34615 0.17847 0.038788 -0.1242 0.089877 0.0055136 0.2509 -0.43426 -0.17535 0.33055 0.064477 -0.33322 -0.12906 -0.04072 0.059227 -0.57057 0.071552 -0.28784 -0.19257 0.28227 -0.39662 0.4106 -0.018755 -0.15149 -0.17419 0.070138 0.14053 -0.11285 -0.10352 0.081947 -0.056197 0.17759 0.049747 0.015142 -0.12737 -0.26558 0.56366 0.38336 0.048635 -0.25168 -0.29467 0.15178 -0.12246 -0.056199 -0.033271 0.1086 0.015302 0.32935 -0.1232 0.51726 -0.21736 -0.33306 -0.0046525 -0.0674 0.40972 0.17499 0.086195 
주었다. 0.21064 -0.091247 0.56857 -0.097293 -0.15308 -0.098419 0.14549 -0.063097 -0.023091 -0.19083 0.060133 -0.14847 -0.03608 0.21592 0.049183 -0.053961 0.12089 -0.26628 0.055433 -0.1567 0.19251 -0.04775 0.020873 0.081535 0.26751 0.078884 0.2111 -0.02794 -0.11577 0.35072 -0.077871 -0.01775 -0.049724 0.51638 -0.46061 0.030134 -0.065212 -0.29802 -0.32714 -0.07928 -0.11571 0.052102 0.14812 -0.38104 0.2016 0.03508 -0.14124 0.088616 0.017069 0.28421 -0.47134 -0.18487 0.36409 0.058365 -0.36348 -0.15381 -0.039671 0.065413 -0.6347 0.07404 -0.32236 -0.21422 0.31782 -0.43928 0.46353 -0.018195 -0.17515 -0.18816 0.064385 0.15185 -0.13052 -0.11301 0.093229 -0.067501 0.18691 0.060892 0.010502 -0.14507 -0.29155 0.62442 0.42423 0.060433 -0.27426 -0.32331 0.16869 -0.12709 -0.065265 -0.030164 0.11551 0.011925 0.36702 -0.13382 0.57309 -0.23838 -0.37919 0.0024541 -0.063565 0.44388 0.19006 0.098333 
이미 0.18589 -0.074965 0.52604 -0.083848 -0.14468 -0.09234 0.12523 -0.0606 -0.037426 -0.16982 0.059868 -0.13092 -0.037814 0.19844 0.036714 -0.048614 0.11436 -0.2441 0.039644 -0.13796 0.18128 -0.045403 0.007181 0.075233 0.2487 0.0686 0.19183 -0.024641 -0.10822 0.31944 -0.07652 -0.025913 -0.037023 0.47142 -0.42533 0.028711 -0.054357 -0.27211 -0.29586 -0.070081 -0.10132 0.049107 0.12382 -0.35087 0.19069 0.04187 -0.12682 0.085222 0.020099 0.2556 -0.44255 -0.17642 0.33871 0.067487 -0.33754 -0.1364 -0.040897 0.068748 -0.58628 0.071879 -0.29152 -0.19605 0.29409 -0.40058 0.42621 -0.027564 -0.15623 -0.1717 0.06542 0.15108 -0.11831 -0.10296 0.07952 -0.054846 0.17895 0.055469 0.014359 -0.12985 -0.26427 0.58113 0.39917 0.05042 -0.25145 -0.29417 0.1525 -0.11964 -0.056207 -0.028567 0.11407 0.016811 0.33967 -0.13106 0.52606 -0.22116 -0.3394 -0.0042631 -0.061222 0.41217 0.17244 0.082566 
학생들은 0.24808 -0.095892 0.69138 -0.10939 -0.18883 -0.11086 0.16538 -0.07974 -0.038631 -0.22019 0.071768 -0.17558 -0.04797 0.27111 0.054054 -0.066944 0.1515 -0.31914 0.057533 -0.18655 0.23725 -0.056854 0.017026 0.093047 0.32266 0.096819 0.24604 -0.034268 -0.14067 0.41501 -0.10289 -0.024294 -0.051507 0.61904 -0.55946 0.040709 -0.071605 -0.36083 -0.39 -0.084266 -0.13127 0.054898 0.16121 -0.466 0.23965 0.053235 -0.16622 0.11323 0.031189 0.3417 -0.57658 -0.22917 0.44231 0.077554 -0.44173 -0.18299 -0.050216 0.086365 -0.76414 0.090605 -0.38412 -0.25665 0.38543 -0.52318 0.558 -0.0307 -0.20587 -0.23124 0.084153 0.19499 -0.15724 -0.14201 0.10668 -0.077578 0.23454 0.072437 0.020764 -0.17712 -0.3541 0.75767 0.51518 0.069214 -0.33179 -0.38878 0.19704 -0.15183 -0.07136 -0.041874 0.14466 0.023164 0.44102 -0.16706 0.69006 -0.29244 -0.44703 0.0014679 -0.074334 0.54197 0.23189 0.11801 
밖에 0.172 -0.073537 0.47962 -0.074474 -0.1274 -0.077512 0.11331 -0.055636 -0.029788 -0.1575 0.048083 -0.12431 -0.03735 0.1878 0.033825 -0.043994 0.1092 -0.22704 0.034637 -0.13278 0.16363 -0.033871 0.0068464 0.065667 0.22011 0.067227 0.1763 -0.021749 -0.10335 0.2925 -0.076415 -0.018604 -0.03865 0.43383 -0.39286 0.029802 -0.051542 -0.25297 -0.26882 -0.060992 -0.091617 0.03932 0.11284 -0.32807 0.16856 0.033569 -0.11481 0.08137 0.021414 0.24146 -0.40534 -0.15455 0.30999 0.05223 -0.30717 -0.12504 -0.037529 0.064277 -0.53063 0.067813 -0.25985 -0.17751 0.27341 -0.36843 0.38735 -0.025225 -0.14547 -0.16263 0.063451 0.1339 -0.10214 -0.10097 0.071537 -0.056411 0.16173 0.056375 0.012868 -0.12105 -0.24199 0.53442 0.3595 0.047579 -0.23304 -0.27351 0.14329 -0.11089 -0.056225 -0.031864 0.1019 0.01717 0.30885 -0.11724 0.49246 -0.20872 -0.31014 0.0012846 -0.049217 0.38255 0.16672 0.081327 
반공의 0.23881 -0.094165 0.67468 -0.1091 -0.18593 -0.11424 0.16578 -0.067732 -0.034604 -0.21764 0.072042 -0.17357 -0.049718 0.26267 0.053817 -0.065514 0.14644 -0.31232 0.059312 -0.18322 0.23181 -0.057914 0.01894 0.092605 0.31857 0.09354 0.24747 -0.034102 -0.13861 0.40336 -0.095848 -0.022141 -0.053097 0.60972 -0.54602 0.03846 -0.065524 -0.34399 -0.38077 -0.091033 -0.13379 0.055697 0.16302 -0.45193 0.23718 0.049233 -0.16049 0.11104 0.028603 0.33688 -0.56443 -0.22496 0.4298 0.074092 -0.42993 -0.17855 -0.046826 0.08372 -0.74551 0.090047 -0.37594 -0.25624 0.38292 -0.51671 0.54934 -0.028066 -0.20278 -0.22048 0.081737 0.18731 -0.15269 -0.13699 0.098403 -0.077359 0.22631 0.073739 0.018839 -0.1739 -0.34569 0.74664 0.50791 0.06035 -0.32772 -0.37491 0.19835 -0.15067 -0.074293 -0.04186 0.14099 0.015428 0.43696 -0.15597 0.67605 -0.28298 -0.43832 -0.0039601 -0.071607 0.52963 0.22705 0.11634 
※꿈의 0.10766 -0.037964 0.28407 -0.047286 -0.070097 -0.044026 0.068336 -0.024532 -0.021158 -0.086803 0.030066 -0.069023 -0.011334 0.11565 0.017072 -0.024022 0.062759 -0.13817 0.014877 -0.075096 0.099663 -0.020015 0.010846 0.030622 0.13367 0.030995 0.10376 -0.012647 -0.071103 0.16617 -0.04937 -0.014772 -0.024531 0.26389 -0.23109 0.021269 -0.022514 -0.14401 -0.16738 -0.041552 -0.052875 0.029195 0.054142 -0.19227 0.096658 0.029919 -0.069617 0.051282 0.025785 0.14247 -0.23699 -0.10527 0.18888 0.036179 -0.18633 -0.06907 -0.021905 0.032884 -0.32332 0.03227 -0.15575 -0.10248 0.15293 -0.2128 0.24392 -0.019145 -0.0877 -0.095403 0.038648 0.094517 -0.058454 -0.060228 0.044627 -0.036689 0.090013 0.027005 0.014869 -0.077911 -0.1389 0.31742 0.21046 0.031145 -0.13338 -0.15343 0.076745 -0.058768 -0.024542 -0.021851 0.058155 0.010561 0.19858 -0.067186 0.29287 -0.12325 -0.19175 0.0016496 -0.023991 0.23772 0.098552 0.055499 
더욱 0.23567 -0.092046 0.65248 -0.10109 -0.17187 -0.11238 0.15401 -0.066547 -0.037178 -0.2113 0.068886 -0.16823 -0.047512 0.25071 0.045035 -0.066353 0.14335 -0.30022 0.055928 -0.17512 0.2188 -0.055204 0.012613 0.090214 0.30823 0.095298 0.23656 -0.028968 -0.13553 0.39309 -0.093849 -0.021687 -0.056696 0.5848 -0.53213 0.037142 -0.065972 -0.33649 -0.36924 -0.088237 -0.12959 0.053628 0.15001 -0.44057 0.23414 0.051865 -0.15336 0.10155 0.028919 0.31995 -0.54099 -0.2192 0.41946 0.077507 -0.41773 -0.16764 -0.04775 0.077675 -0.72951 0.08998 -0.35786 -0.24421 0.36273 -0.50079 0.52639 -0.026274 -0.19693 -0.21627 0.08172 0.18628 -0.14408 -0.12918 0.094978 -0.072118 0.21582 0.073577 0.0133 -0.16376 -0.33875 0.72009 0.48012 0.065982 -0.31451 -0.36659 0.18773 -0.1461 -0.07279 -0.046189 0.13629 0.011853 0.42423 -0.15422 0.65709 -0.27966 -0.42434 0.0092879 -0.070779 0.51255 0.21715 0.10524 
갑자기 0.22687 -0.093007 0.65055 -0.10939 -0.17461 -0.11283 0.15738 -0.068543 -0.037559 -0.21252 0.068207 -0.16719 -0.042357 0.24814 0.048389 -0.06154 0.14429 -0.30255 0.056859 -0.17337 0.22374 -0.056447 0.018214 0.088186 0.30333 0.093217 0.24347 -0.031944 -0.13374 0.39574 -0.09666 -0.026189 -0.056053 0.58411 -0.52612 0.043114 -0.063916 -0.3342 -0.36912 -0.090068 -0.12554 0.057912 0.15338 -0.43648 0.23177 0.051538 -0.16241 0.11176 0.025722 0.32484 -0.54618 -0.2172 0.41506 0.073763 -0.41538 -0.16565 -0.043087 0.075324 -0.72304 0.090617 -0.35677 -0.24896 0.36809 -0.49674 0.52823 -0.022652 -0.19375 -0.21458 0.08018 0.18279 -0.14568 -0.13219 0.09949 -0.070093 0.21984 0.068981 0.01137 -0.16801 -0.33034 0.71651 0.48474 0.06129 -0.31386 -0.36259 0.18874 -0.14548 -0.072251 -0.039128 0.13762 0.018249 0.421 -0.15068 0.65172 -0.27657 -0.4227 0.0037248 -0.07328 0.51154 0.21311 0.10696 
없는 0.20751 -0.080967 0.57199 -0.091286 -0.15796 -0.097157 0.13581 -0.066599 -0.032494 -0.18084 0.058541 -0.15093 -0.038071 0.22852 0.044871 -0.057223 0.12958 -0.26976 0.045147 -0.15775 0.20025 -0.050296 0.010097 0.080841 0.27046 0.079927 0.20673 -0.028374 -0.12595 0.34714 -0.08264 -0.019619 -0.05216 0.51641 -0.46859 0.034995 -0.062246 -0.29654 -0.32901 -0.071155 -0.10739 0.050194 0.13744 -0.38522 0.20371 0.043881 -0.14012 0.09443 0.018652 0.28774 -0.4846 -0.19903 0.36963 0.063898 -0.37446 -0.1509 -0.045653 0.073592 -0.64053 0.082966 -0.31724 -0.22171 0.32355 -0.438 0.46925 -0.02194 -0.17281 -0.18786 0.071004 0.15739 -0.12752 -0.12274 0.086318 -0.061462 0.19196 0.060136 0.017403 -0.146 -0.29781 0.64154 0.4326 0.057522 -0.27739 -0.32303 0.16827 -0.12406 -0.061579 -0.032926 0.11968 0.019406 0.37263 -0.13145 0.58673 -0.24266 -0.37373 0.005428 -0.067514 0.45137 0.19766 0.097446 
보였다. 0.18839 -0.082414 0.51238 -0.091213 -0.14031 -0.089872 0.12686 -0.057976 -0.026788 -0.16966 0.055591 -0.13594 -0.036861 0.19711 0.042101 -0.052486 0.11089 -0.23496 0.04571 -0.139 0.17786 -0.039773 0.017766 0.073787 0.2401 0.073576 0.18765 -0.022916 -0.10289 0.31472 -0.07626 -0.015195 -0.045717 0.46435 -0.42365 0.029366 -0.057645 -0.27075 -0.28979 -0.075089 -0.097962 0.044384 0.12949 -0.3455 0.18593 0.034449 -0.12588 0.084069 0.014938 0.25957 -0.42779 -0.16862 0.32819 0.055879 -0.33555 -0.13635 -0.034802 0.060775 -0.57383 0.06577 -0.28941 -0.19348 0.28884 -0.40071 0.42253 -0.019668 -0.15465 -0.17002 0.052643 0.14072 -0.11705 -0.10496 0.083103 -0.064959 0.17532 0.048567 0.015301 -0.13382 -0.26542 0.571 0.38471 0.049207 -0.24532 -0.29029 0.15471 -0.11757 -0.059865 -0.029835 0.10641 0.014907 0.33016 -0.12578 0.52465 -0.21792 -0.3438 0.0035658 -0.061581 0.39858 0.17241 0.088089 
반공이 0.22236 -0.087194 0.6354 -0.10178 -0.17068 -0.10859 0.1482 -0.070401 -0.031447 -0.20326 0.068781 -0.16083 -0.042882 0.24387 0.048611 -0.060577 0.13747 -0.29023 0.053776 -0.17133 0.21396 -0.056334 0.012878 0.09096 0.29618 0.09 0.22552 -0.028988 -0.13324 0.37608 -0.086064 -0.01406 -0.049008 0.56809 -0.51451 0.036766 -0.061141 -0.32688 -0.35655 -0.082398 -0.1242 0.052828 0.14942 -0.42279 0.21977 0.042477 -0.14924 0.099971 0.022577 0.31182 -0.52648 -0.21321 0.4058 0.070509 -0.40193 -0.16557 -0.04448 0.07471 -0.69804 0.088117 -0.34924 -0.24098 0.34984 -0.47894 0.50866 -0.028352 -0.18688 -0.20675 0.081488 0.1712 -0.14289 -0.12893 0.096375 -0.071019 0.21273 0.066327 0.019614 -0.16276 -0.31916 0.69294 0.46989 0.055296 -0.30089 -0.35333 0.18331 -0.14515 -0.067852 -0.035498 0.13131 0.015295 0.40759 -0.15305 0.63493 -0.26357 -0.40435 0.0020893 -0.064918 0.48744 0.20957 0.10704 
쳐다보았다. 0.20754 -0.082906 0.56858 -0.097139 -0.15551 -0.098342 0.14016 -0.059856 -0.025119 -0.1862 0.05907 -0.14984 -0.036689 0.2166 0.044912 -0.052942 0.11992 -0.26477 0.052944 -0.15106 0.19096 -0.048441 0.016039 0.078488 0.27041 0.079207 0.20942 -0.027353 -0.11624 0.34795 -0.081958 -0.017826 -0.046864 0.51378 -0.45861 0.034343 -0.063298 -0.30011 -0.32275 -0.077731 -0.11087 0.04835 0.1375 -0.38201 0.20085 0.038588 -0.13965 0.090755 0.019927 0.28757 -0.47155 -0.18715 0.36484 0.060712 -0.36538 -0.15256 -0.039834 0.067893 -0.63318 0.072877 -0.32328 -0.21605 0.31814 -0.43632 0.46558 -0.023518 -0.17039 -0.18523 0.065126 0.15442 -0.12735 -0.11472 0.086602 -0.06473 0.1912 0.059362 0.013175 -0.14003 -0.29478 0.62644 0.4275 0.057535 -0.27075 -0.3209 0.1709 -0.1227 -0.067849 -0.033389 0.11613 0.015858 0.36766 -0.13697 0.5772 -0.23609 -0.37477 0.0037798 -0.063317 0.44192 0.18765 0.095517 
본 0.19796 -0.07522 0.55661 -0.090546 -0.15317 -0.089942 0.13673 -0.064559 -0.036478 -0.18475 0.056882 -0.13829 -0.040403 0.21504 0.049376 -0.0585 0.12034 -0.25225 0.055053 -0.14401 0.20073 -0.047858 0.0076718 0.076186 0.26206 0.0866 0.19983 -0.026638 -0.11535 0.33759 -0.089666 -0.017713 -0.045689 0.50226 -0.45396 0.033076 -0.053409 -0.2882 -0.30973 -0.073488 -0.1073 0.048035 0.12713 -0.37873 0.19333 0.050392 -0.13946 0.085411 0.020618 0.269 -0.46077 -0.18698 0.35841 0.068447 -0.35414 -0.15394 -0.040928 0.067795 -0.62054 0.073511 -0.3116 -0.21751 0.31594 -0.42092 0.45083 -0.017825 -0.1645 -0.17784 0.070057 0.16162 -0.1273 -0.11803 0.085788 -0.05424 0.18442 0.057248 0.0047835 -0.14826 -0.27727 0.61829 0.42006 0.054908 -0.26401 -0.31507 0.16566 -0.12637 -0.059756 -0.041881 0.11609 0.017809 0.35739 -0.13134 0.55821 -0.23969 -0.35623 0.0029926 -0.06713 0.43646 0.18216 0.089522 
자신이 0.21409 -0.081892 0.60015 -0.09579 -0.16372 -0.10204 0.14238 -0.068107 -0.031453 -0.19291 0.061677 -0.15488 -0.038958 0.22898 0.044148 -0.05527 0.13145 -0.27632 0.054754 -0.16182 0.20165 -0.046901 0.011868 0.083189 0.28139 0.083421 0.21604 -0.029825 -0.12673 0.35745 -0.086245 -0.020484 -0.043558 0.53598 -0.48236 0.036669 -0.060081 -0.30987 -0.3354 -0.07532 -0.11498 0.04694 0.14591 -0.40193 0.21586 0.046875 -0.13612 0.099882 0.022434 0.29299 -0.50327 -0.19521 0.3841 0.067599 -0.38354 -0.1524 -0.043118 0.072345 -0.66194 0.080553 -0.33191 -0.22515 0.32845 -0.45746 0.48192 -0.026145 -0.17624 -0.19955 0.073304 0.16986 -0.13579 -0.12177 0.089081 -0.067185 0.20091 0.063639 0.016627 -0.14878 -0.30557 0.65497 0.44521 0.052556 -0.28798 -0.33213 0.1738 -0.13485 -0.068171 -0.032536 0.13051 0.012634 0.38029 -0.13614 0.60172 -0.25331 -0.38451 -0.0016267 -0.066469 0.46531 0.19615 0.10217 
내가 0.19448 -0.073093 0.53588 -0.081135 -0.1509 -0.091145 0.12428 -0.059608 -0.024641 -0.17643 0.053383 -0.13215 -0.030964 0.21048 0.044005 -0.055949 0.12814 -0.24724 0.04071 -0.13839 0.18867 -0.043599 0.0062343 0.073933 0.24399 0.082097 0.19665 -0.029913 -0.10974 0.32431 -0.07738 -0.015031 -0.040214 0.47823 -0.44096 0.02994 -0.053288 -0.27849 -0.30165 -0.074228 -0.10202 0.042666 0.12559 -0.35757 0.18748 0.04233 -0.12883 0.090711 0.018258 0.26902 -0.44907 -0.18837 0.34405 0.060527 -0.34573 -0.13816 -0.038632 0.066756 -0.59488 0.073775 -0.29967 -0.20698 0.30204 -0.40279 0.42974 -0.029862 -0.15856 -0.18554 0.073242 0.14445 -0.1211 -0.10743 0.083126 -0.059649 0.17636 0.058386 0.014862 -0.13303 -0.27404 0.58994 0.40176 0.054959 -0.25955 -0.30352 0.15702 -0.12448 -0.056424 -0.029287 0.11196 0.016874 0.34734 -0.12296 0.54158 -0.23268 -0.35078 0.00333 -0.06233 0.41939 0.18347 0.083901 
웃으며 0.2025 -0.077824 0.56082 -0.09006 -0.15063 -0.093626 0.13403 -0.054712 -0.029611 -0.17742 0.055384 -0.1461 -0.041668 0.21709 0.040047 -0.053061 0.12239 -0.26247 0.047375 -0.15137 0.18861 -0.049731 0.013769 0.075045 0.26567 0.077841 0.20362 -0.027987 -0.1213 0.34091 -0.07944 -0.017675 -0.042762 0.50823 -0.45977 0.032994 -0.057502 -0.28892 -0.31992 -0.077371 -0.10994 0.053697 0.13592 -0.38247 0.19859 0.038703 -0.13041 0.08985 0.018859 0.28054 -0.47682 -0.18908 0.36788 0.068175 -0.35819 -0.14622 -0.035698 0.066563 -0.62495 0.069797 -0.31488 -0.21264 0.31813 -0.4293 0.45251 -0.02006 -0.17018 -0.18926 0.071961 0.15494 -0.12369 -0.11152 0.083104 -0.064387 0.18876 0.062689 0.018048 -0.14313 -0.28869 0.62098 0.42425 0.051385 -0.27701 -0.31435 0.16502 -0.12623 -0.060724 -0.03445 0.11957 0.017056 0.36011 -0.13777 0.56377 -0.23684 -0.37192 0.0052487 -0.059078 0.43658 0.1878 0.097665 
되었다. 0.19833 -0.083746 0.53807 -0.093859 -0.14746 -0.09525 0.13638 -0.059956 -0.025299 -0.18018 0.057839 -0.1428 -0.034582 0.20744 0.046531 -0.055159 0.11514 -0.25257 0.054092 -0.14298 0.18291 -0.042285 0.016522 0.078535 0.25534 0.074383 0.19847 -0.0259 -0.10748 0.33111 -0.077541 -0.013413 -0.04792 0.48709 -0.4371 0.032053 -0.06099 -0.2849 -0.31069 -0.074344 -0.10965 0.050834 0.1365 -0.3629 0.18823 0.03221 -0.13552 0.087737 0.017334 0.27233 -0.45023 -0.17916 0.3448 0.059386 -0.34747 -0.14686 -0.036292 0.061385 -0.60593 0.072148 -0.30553 -0.20211 0.29871 -0.41612 0.44018 -0.019691 -0.16518 -0.18076 0.058852 0.1434 -0.12222 -0.10905 0.085481 -0.066276 0.18207 0.059945 0.0078471 -0.13857 -0.27927 0.59581 0.40555 0.052327 -0.25832 -0.30462 0.16071 -0.11742 -0.068242 -0.028132 0.11024 0.01566 0.34998 -0.12695 0.54412 -0.22303 -0.36183 0.0051101 -0.062356 0.42215 0.18175 0.093733 
않았다. 0.20577 -0.082614 0.56089 -0.1015 -0.15737 -0.093331 0.14087 -0.065765 -0.024958 -0.18488 0.056911 -0.14871 -0.034949 0.21183 0.045439 -0.053811 0.11722 -0.25981 0.049601 -0.14746 0.18761 -0.047077 0.017699 0.079136 0.26446 0.077216 0.20499 -0.024478 -0.11099 0.34262 -0.08349 -0.019222 -0.047632 0.50316 -0.45186 0.031538 -0.063166 -0.2951 -0.31262 -0.07351 -0.11187 0.049223 0.13989 -0.37414 0.19777 0.035007 -0.13427 0.088518 0.019396 0.2801 -0.46478 -0.18266 0.36077 0.061475 -0.35667 -0.14369 -0.038938 0.067079 -0.62214 0.070969 -0.31541 -0.21105 0.31113 -0.43097 0.45833 -0.023795 -0.17056 -0.18629 0.061954 0.1497 -0.1242 -0.11025 0.083351 -0.066223 0.18944 0.054671 0.0096712 -0.14186 -0.29112 0.61994 0.42224 0.05957 -0.27349 -0.31413 0.16479 -0.11895 -0.06833 -0.028753 0.11339 0.014417 0.36147 -0.13239 0.56844 -0.23625 -0.37099 0.003668 -0.064317 0.43235 0.18677 0.096754 
들어 0.2693 -0.10743 0.77649 -0.12302 -0.20393 -0.13283 0.18348 -0.082517 -0.040318 -0.25143 0.078847 -0.19112 -0.050207 0.30387 0.057294 -0.078105 0.1704 -0.3631 0.065078 -0.21301 0.26029 -0.06535 0.019045 0.11133 0.36363 0.1108 0.279 -0.033406 -0.16181 0.47223 -0.10814 -0.027611 -0.056854 0.69669 -0.63393 0.046723 -0.080577 -0.40471 -0.43644 -0.096487 -0.15719 0.064406 0.18419 -0.51595 0.26838 0.055685 -0.18882 0.12319 0.027772 0.38039 -0.64434 -0.26287 0.49548 0.091318 -0.48963 -0.20275 -0.054178 0.091748 -0.85578 0.099837 -0.42724 -0.29451 0.4341 -0.58719 0.63267 -0.030461 -0.22621 -0.25804 0.096411 0.20798 -0.17398 -0.15177 0.12126 -0.081295 0.25806 0.083492 0.012784 -0.20159 -0.39543 0.85061 0.57508 0.081999 -0.3756 -0.43509 0.22753 -0.17099 -0.0873 -0.041602 0.16159 0.019917 0.49806 -0.18389 0.7821 -0.32711 -0.50353 -0.00032041 -0.084526 0.60806 0.26177 0.13254 
한다. 0.23329 -0.097561 0.64141 -0.11304 -0.1754 -0.10757 0.16395 -0.070813 -0.032868 -0.21039 0.065012 -0.16867 -0.038968 0.24366 0.055259 -0.058931 0.14234 -0.29783 0.060308 -0.1745 0.21627 -0.054774 0.017522 0.088652 0.29819 0.087769 0.23661 -0.028003 -0.13017 0.39576 -0.093513 -0.014947 -0.053709 0.57969 -0.52073 0.035624 -0.069799 -0.33864 -0.3645 -0.089592 -0.12734 0.051256 0.15627 -0.43373 0.22433 0.046698 -0.15705 0.10353 0.015598 0.32133 -0.53399 -0.21254 0.40944 0.069136 -0.41502 -0.16899 -0.045795 0.073603 -0.71848 0.085887 -0.36534 -0.24554 0.35786 -0.49824 0.52637 -0.026601 -0.19367 -0.21563 0.067613 0.17528 -0.14472 -0.12772 0.10061 -0.080627 0.21984 0.070248 0.017463 -0.16264 -0.32957 0.70935 0.48659 0.061926 -0.30899 -0.36454 0.19162 -0.14149 -0.075182 -0.035207 0.13035 0.019504 0.40972 -0.15196 0.65208 -0.26461 -0.423 0.0079559 -0.074246 0.50164 0.21491 0.11006 
한번 0.20573 -0.085054 0.58818 -0.09101 -0.15902 -0.097908 0.13381 -0.061516 -0.036222 -0.18528 0.05586 -0.15502 -0.039586 0.22945 0.041356 -0.058211 0.12899 -0.27042 0.048745 -0.15774 0.19067 -0.049305 0.013494 0.077017 0.26828 0.084546 0.21775 -0.027957 -0.12612 0.3593 -0.082752 -0.022927 -0.043238 0.52221 -0.47396 0.039388 -0.056174 -0.29691 -0.33229 -0.076297 -0.11671 0.046962 0.14057 -0.39238 0.20875 0.043884 -0.13617 0.09746 0.020677 0.29021 -0.48894 -0.1947 0.3721 0.071462 -0.37424 -0.15644 -0.040689 0.071346 -0.64453 0.075928 -0.32925 -0.2216 0.32468 -0.44372 0.47349 -0.024069 -0.17928 -0.19137 0.071008 0.16089 -0.12948 -0.11983 0.08569 -0.064649 0.19571 0.067613 0.012793 -0.15204 -0.30258 0.63978 0.43506 0.057254 -0.27733 -0.32477 0.17227 -0.12834 -0.061471 -0.034975 0.12119 0.01468 0.37721 -0.13061 0.58491 -0.24802 -0.37482 0.00014333 -0.065871 0.45749 0.19918 0.099401 
머리를 0.25627 -0.10568 0.72136 -0.11217 -0.19471 -0.11758 0.17115 -0.075975 -0.041531 -0.22904 0.073613 -0.18615 -0.051307 0.27812 0.058038 -0.070628 0.15934 -0.33773 0.055101 -0.1968 0.24092 -0.061162 0.01554 0.10345 0.33302 0.10394 0.26385 -0.034494 -0.15261 0.433 -0.10567 -0.020046 -0.055433 0.64824 -0.5893 0.046703 -0.075142 -0.37114 -0.41034 -0.09269 -0.1377 0.063567 0.17696 -0.48864 0.25621 0.05332 -0.16971 0.12 0.028146 0.35735 -0.60524 -0.23873 0.45984 0.080217 -0.45992 -0.19368 -0.050217 0.085248 -0.8004 0.093245 -0.40613 -0.27352 0.40471 -0.55183 0.5857 -0.026016 -0.21408 -0.23824 0.086971 0.1947 -0.15883 -0.1431 0.10082 -0.076623 0.24343 0.077467 0.017511 -0.18296 -0.36532 0.79549 0.53543 0.07383 -0.34661 -0.40046 0.20966 -0.16257 -0.078341 -0.040295 0.14851 0.024635 0.46444 -0.1714 0.72985 -0.30799 -0.46774 0.0018883 -0.079147 0.56105 0.24009 0.12693 
얼굴을 0.19966 -0.075398 0.54596 -0.087042 -0.14767 -0.091695 0.12969 -0.055386 -0.030524 -0.17796 0.055669 -0.13863 -0.038514 0.20564 0.047096 -0.053197 0.12034 -0.25369 0.046463 -0.14891 0.18725 -0.04951 0.0095595 0.074081 0.25468 0.07751 0.19941 -0.028415 -0.11482 0.33036 -0.079298 -0.017331 -0.046664 0.49425 -0.44692 0.034682 -0.053402 -0.27868 -0.30655 -0.070763 -0.11308 0.045079 0.13641 -0.37147 0.19131 0.04117 -0.13064 0.090857 0.019219 0.2712 -0.46107 -0.18538 0.3489 0.06312 -0.34704 -0.14693 -0.037776 0.069516 -0.61123 0.074119 -0.30389 -0.20866 0.30918 -0.41904 0.4398 -0.01855 -0.16072 -0.18394 0.068972 0.15182 -0.12363 -0.10925 0.085025 -0.061561 0.18354 0.059991 0.011469 -0.14059 -0.27792 0.60374 0.40659 0.055915 -0.26063 -0.30734 0.16098 -0.12258 -0.06018 -0.032438 0.11708 0.01731 0.34948 -0.1314 0.55044 -0.23228 -0.35503 -0.00481 -0.058907 0.43126 0.18452 0.090923 
사람들은 0.23233 -0.088498 0.6395 -0.10587 -0.17173 -0.10696 0.1563 -0.067245 -0.03706 -0.20944 0.065125 -0.1641 -0.044409 0.25201 0.046849 -0.058714 0.14077 -0.30083 0.053973 -0.1725 0.22442 -0.053268 0.010447 0.086625 0.30139 0.089697 0.23038 -0.031758 -0.13313 0.38736 -0.09606 -0.01935 -0.049243 0.57804 -0.51663 0.036568 -0.065442 -0.32637 -0.36146 -0.084024 -0.12171 0.052098 0.1527 -0.43214 0.22792 0.048729 -0.15385 0.10719 0.027173 0.31703 -0.53779 -0.21384 0.40929 0.075034 -0.40999 -0.1693 -0.045741 0.076493 -0.71332 0.082893 -0.35411 -0.24205 0.36107 -0.48934 0.52135 -0.024388 -0.19275 -0.21421 0.083517 0.18006 -0.14649 -0.13006 0.094604 -0.073344 0.21833 0.067082 0.017834 -0.16134 -0.32575 0.7068 0.47924 0.061686 -0.30671 -0.35892 0.1837 -0.14468 -0.067609 -0.037459 0.13243 0.020019 0.41268 -0.15402 0.64557 -0.27251 -0.41383 0.004399 -0.068511 0.50459 0.21693 0.11082 
할 0.20137 -0.073625 0.55838 -0.084363 -0.14609 -0.092447 0.13103 -0.064083 -0.042823 -0.183 0.051614 -0.14912 -0.044683 0.22354 0.043761 -0.058399 0.12376 -0.25834 0.040312 -0.15153 0.19355 -0.044285 0.0090272 0.070034 0.26024 0.078654 0.20762 -0.034447 -0.12245 0.34301 -0.084442 -0.01935 -0.045836 0.50488 -0.45818 0.036901 -0.055952 -0.291 -0.31303 -0.076677 -0.10526 0.053451 0.13017 -0.38138 0.20132 0.046668 -0.14153 0.1033 0.022921 0.28199 -0.46669 -0.19637 0.36141 0.06572 -0.35467 -0.15317 -0.03748 0.064867 -0.62793 0.080511 -0.31147 -0.21842 0.31563 -0.42935 0.45652 -0.032246 -0.17312 -0.18201 0.069351 0.15974 -0.1219 -0.10995 0.085487 -0.069209 0.18586 0.06198 0.013096 -0.14962 -0.28557 0.62281 0.42073 0.054261 -0.27288 -0.31377 0.16102 -0.11922 -0.060169 -0.030626 0.1192 0.018604 0.35865 -0.13102 0.56969 -0.24313 -0.37286 0.0045734 -0.062705 0.4398 0.18259 0.091254 
뒤로 0.18064 -0.073687 0.50546 -0.075825 -0.13563 -0.086039 0.11704 -0.054084 -0.029407 -0.16329 0.054449 -0.12962 -0.032333 0.19127 0.042193 -0.04815 0.10788 -0.23299 0.042422 -0.13261 0.16703 -0.04633 0.007989 0.064579 0.23254 0.064935 0.18639 -0.022341 -0.10388 0.30341 -0.069421 -0.016746 -0.038945 0.45428 -0.40491 0.029136 -0.052797 -0.25866 -0.28207 -0.063935 -0.095822 0.043513 0.11189 -0.33836 0.17384 0.04233 -0.11667 0.078733 0.017116 0.25061 -0.41917 -0.16704 0.32444 0.052943 -0.31929 -0.12736 -0.035244 0.064239 -0.55438 0.068127 -0.2818 -0.1873 0.2799 -0.38628 0.4065 -0.021384 -0.1485 -0.16118 0.067085 0.14524 -0.11172 -0.10102 0.076849 -0.05881 0.16637 0.052555 0.012569 -0.12558 -0.25106 0.55645 0.37356 0.047977 -0.24456 -0.27344 0.14606 -0.11396 -0.058285 -0.029584 0.10063 0.017221 0.32819 -0.11862 0.50561 -0.2111 -0.32436 -0.0042953 -0.052907 0.3968 0.16998 0.082682 
모두가 0.21147 -0.083593 0.59774 -0.096636 -0.15462 -0.098234 0.14776 -0.063752 -0.033661 -0.18956 0.060731 -0.15306 -0.038747 0.22825 0.044678 -0.062296 0.12706 -0.2756 0.053739 -0.16104 0.20796 -0.052566 0.01126 0.079167 0.28081 0.085839 0.21814 -0.029416 -0.12156 0.35503 -0.090479 -0.020284 -0.044922 0.53502 -0.48416 0.032378 -0.057447 -0.30354 -0.33795 -0.07913 -0.11718 0.049059 0.14496 -0.39993 0.21061 0.043472 -0.14716 0.095167 0.021434 0.29272 -0.4979 -0.19943 0.38219 0.072732 -0.38112 -0.15583 -0.045035 0.072912 -0.66025 0.084033 -0.32957 -0.22213 0.33041 -0.45304 0.47971 -0.028382 -0.1769 -0.19319 0.07635 0.16145 -0.13036 -0.11652 0.088779 -0.064756 0.19793 0.063536 0.020971 -0.15013 -0.30139 0.6531 0.44689 0.059538 -0.28402 -0.33169 0.16742 -0.13421 -0.062361 -0.036008 0.12465 0.023731 0.37751 -0.14327 0.59234 -0.24605 -0.38342 -0.0014216 -0.06807 0.46178 0.19878 0.09584 
모두 0.24043 -0.092904 0.67813 -0.10688 -0.18093 -0.11162 0.16069 -0.075378 -0.033756 -0.21726 0.064618 -0.17683 -0.044973 0.26073 0.056165 -0.069837 0.14194 -0.31999 0.059159 -0.17867 0.23639 -0.058304 0.010345 0.086607 0.31537 0.096702 0.25145 -0.03054 -0.13838 0.40781 -0.099553 -0.021633 -0.057348 0.60806 -0.54873 0.036654 -0.06577 -0.35447 -0.38384 -0.089133 -0.13225 0.060556 0.15955 -0.45578 0.2403 0.049953 -0.1649 0.11499 0.026237 0.33203 -0.56945 -0.22448 0.43591 0.07534 -0.43117 -0.17121 -0.048439 0.086636 -0.75386 0.099285 -0.37932 -0.25406 0.38317 -0.51495 0.5444 -0.028054 -0.20178 -0.22288 0.084019 0.19055 -0.1479 -0.14109 0.095219 -0.071888 0.22591 0.072889 0.025553 -0.17575 -0.34259 0.74939 0.50755 0.065749 -0.32365 -0.37962 0.19405 -0.14711 -0.071852 -0.043663 0.14028 0.022996 0.43808 -0.16561 0.6789 -0.28286 -0.43647 0.0010034 -0.079742 0.52774 0.22839 0.10957 
반아 0.26119 -0.10273 0.73442 -0.12658 -0.19355 -0.12625 0.17519 -0.079337 -0.043494 -0.23828 0.082341 -0.18378 -0.056128 0.28592 0.057263 -0.069651 0.15958 -0.34061 0.063809 -0.20403 0.24879 -0.06092 0.012909 0.10804 0.33539 0.10078 0.2683 -0.039195 -0.14774 0.45181 -0.10726 -0.022442 -0.062889 0.65955 -0.6007 0.046595 -0.072381 -0.37739 -0.41671 -0.097268 -0.14237 0.0633 0.18034 -0.49665 0.25738 0.055167 -0.18101 0.12222 0.033111 0.36873 -0.62075 -0.2503 0.46866 0.087455 -0.47153 -0.19232 -0.052172 0.096584 -0.81987 0.098265 -0.412 -0.28554 0.414 -0.55942 0.59415 -0.021715 -0.22454 -0.2435 0.087214 0.20961 -0.16427 -0.15363 0.11472 -0.080083 0.24817 0.086085 0.020657 -0.19096 -0.37547 0.81694 0.55445 0.069141 -0.3521 -0.41109 0.21077 -0.16262 -0.076431 -0.042674 0.14949 0.027851 0.47467 -0.17864 0.74025 -0.31042 -0.47608 -0.0024915 -0.088288 0.57313 0.24716 0.1238 
때문에 0.2074 -0.07866 0.57934 -0.091215 -0.15288 -0.09428 0.13714 -0.059779 -0.035778 -0.18575 0.055584 -0.14797 -0.036463 0.22365 0.042689 -0.063398 0.12513 -0.26868 0.047604 -0.15485 0.20177 -0.051307 0.011779 0.076679 0.26665 0.078973 0.20633 -0.030025 -0.12143 0.34208 -0.088479 -0.020758 -0.046019 0.51947 -0.46728 0.034085 -0.057316 -0.29801 -0.32524 -0.071629 -0.11063 0.047423 0.1363 -0.38647 0.20811 0.042995 -0.13971 0.092365 0.019899 0.28849 -0.48116 -0.19127 0.36514 0.065151 -0.36652 -0.14784 -0.036069 0.072434 -0.63756 0.080568 -0.32209 -0.21727 0.32232 -0.43597 0.46494 -0.022952 -0.17057 -0.1903 0.069361 0.16015 -0.12479 -0.12149 0.082981 -0.067204 0.1881 0.061376 0.016828 -0.14316 -0.29654 0.63019 0.42605 0.050204 -0.27299 -0.32192 0.16383 -0.12837 -0.061839 -0.038222 0.12361 0.02463 0.37084 -0.13227 0.57993 -0.24047 -0.37461 0.0034508 -0.067602 0.45173 0.19308 0.092898 
아직 0.23327 -0.086836 0.64836 -0.10626 -0.16835 -0.10618 0.15895 -0.070136 -0.038071 -0.21286 0.064235 -0.16274 -0.036149 0.25091 0.050389 -0.058981 0.14265 -0.30452 0.053618 -0.17472 0.22389 -0.053218 0.012167 0.083041 0.30784 0.089184 0.23302 -0.028261 -0.13839 0.38979 -0.092985 -0.02157 -0.056228 0.58751 -0.52714 0.039327 -0.069072 -0.34261 -0.36517 -0.080786 -0.12118 0.056503 0.14756 -0.44133 0.22539 0.048292 -0.1611 0.10412 0.019565 0.3204 -0.54371 -0.21979 0.4203 0.081548 -0.41534 -0.16658 -0.044399 0.078502 -0.72662 0.089606 -0.35731 -0.24938 0.3677 -0.49771 0.52919 -0.032606 -0.19248 -0.21489 0.082168 0.18011 -0.14168 -0.13421 0.097 -0.069895 0.22244 0.075605 0.017514 -0.16092 -0.33327 0.7126 0.48454 0.063575 -0.31015 -0.35822 0.1881 -0.14496 -0.068606 -0.036031 0.13451 0.018869 0.41922 -0.15313 0.6583 -0.26691 -0.41724 -0.00058902 -0.073321 0.50922 0.2145 0.11142 
힘을 0.16559 -0.058891 0.45049 -0.077716 -0.12426 -0.075702 0.11175 -0.047556 -0.024053 -0.14787 0.044387 -0.11681 -0.031186 0.17154 0.033152 -0.038677 0.093224 -0.20958 0.038095 -0.1213 0.15919 -0.036008 0.012406 0.058431 0.21368 0.064941 0.16443 -0.020976 -0.094634 0.27643 -0.071206 -0.01968 -0.032073 0.41216 -0.36973 0.027566 -0.047378 -0.23877 -0.24964 -0.060479 -0.089649 0.042053 0.10655 -0.30325 0.15774 0.038704 -0.11327 0.075263 0.013071 0.22403 -0.38225 -0.15474 0.29268 0.052053 -0.29144 -0.11565 -0.037021 0.054488 -0.50769 0.063915 -0.24898 -0.16872 0.25746 -0.3477 0.36835 -0.022073 -0.13411 -0.14554 0.059086 0.12114 -0.096834 -0.088811 0.062619 -0.044179 0.14901 0.052974 0.0095734 -0.11283 -0.22909 0.50121 0.33812 0.042503 -0.22054 -0.25055 0.1343 -0.10369 -0.045958 -0.027949 0.094442 0.010942 0.28954 -0.10613 0.45697 -0.19013 -0.29061 -0.0042167 -0.052785 0.35526 0.14917 0.080156 
갔다. 0.28658 -0.1214 0.80672 -0.14125 -0.22203 -0.14047 0.20616 -0.088112 -0.041104 -0.26503 0.089025 -0.21225 -0.054357 0.30724 0.069245 -0.076494 0.17097 -0.37307 0.070599 -0.21296 0.26942 -0.06464 0.024436 0.11523 0.37179 0.11636 0.29797 -0.032646 -0.16154 0.49077 -0.12237 -0.024513 -0.069721 0.72738 -0.65502 0.0444 -0.087288 -0.42067 -0.46044 -0.11561 -0.16189 0.069264 0.20338 -0.53967 0.28582 0.049586 -0.1933 0.1337 0.024484 0.39815 -0.66607 -0.2671 0.51329 0.088551 -0.51572 -0.21659 -0.056498 0.092301 -0.89194 0.1041 -0.4572 -0.30068 0.4456 -0.61664 0.65615 -0.035969 -0.24247 -0.26195 0.083324 0.2202 -0.17714 -0.15997 0.12689 -0.098699 0.27589 0.082078 0.019043 -0.20312 -0.41314 0.88908 0.60312 0.079832 -0.38439 -0.45499 0.23606 -0.18257 -0.090232 -0.044537 0.16356 0.023473 0.51693 -0.19213 0.80999 -0.33971 -0.53076 0.0063523 -0.095179 0.62559 0.27035 0.13445 
빛이 0.20924 -0.08545 0.60022 -0.10053 -0.15459 -0.10446 0.14284 -0.064315 -0.037669 -0.19488 0.062588 -0.15745 -0.043109 0.23869 0.042426 -0.049341 0.13801 -0.28065 0.052282 -0.16547 0.21101 -0.049759 0.018693 0.080537 0.28422 0.084745 0.21673 -0.017028 -0.12856 0.36188 -0.089342 -0.020927 -0.049593 0.54053 -0.48724 0.035506 -0.058539 -0.30917 -0.34462 -0.080208 -0.11871 0.049379 0.14494 -0.40951 0.21335 0.047301 -0.14395 0.10568 0.024866 0.29851 -0.50554 -0.19702 0.38989 0.072117 -0.38996 -0.16116 -0.047064 0.072646 -0.66395 0.077613 -0.33818 -0.22804 0.33543 -0.46273 0.48823 -0.025426 -0.18587 -0.19432 0.077671 0.16965 -0.13246 -0.11896 0.088615 -0.066999 0.2021 0.062201 0.019864 -0.15466 -0.30925 0.65945 0.45038 0.054963 -0.29003 -0.33817 0.17923 -0.13385 -0.058285 -0.038912 0.12314 0.014403 0.38611 -0.1455 0.61036 -0.25045 -0.38882 -0.0033041 -0.074773 0.47357 0.20118 0.098501 
역시 0.18791 -0.071864 0.51116 -0.084381 -0.13991 -0.092603 0.12307 -0.056434 -0.03336 -0.1685 0.052385 -0.13167 -0.034099 0.19922 0.041351 -0.048064 0.11066 -0.24092 0.04201 -0.14412 0.17719 -0.044278 0.01051 0.067597 0.24237 0.071436 0.18761 -0.025507 -0.10838 0.31213 -0.076423 -0.014166 -0.040414 0.4677 -0.42057 0.037794 -0.054487 -0.26414 -0.28889 -0.072619 -0.10548 0.042287 0.1183 -0.34713 0.1847 0.046732 -0.12057 0.088582 0.019122 0.25877 -0.43285 -0.17818 0.32968 0.060238 -0.32839 -0.1371 -0.03631 0.064471 -0.57857 0.068739 -0.28148 -0.19308 0.28763 -0.39292 0.41613 -0.023922 -0.15408 -0.16971 0.065281 0.14243 -0.10988 -0.10876 0.078514 -0.058568 0.17521 0.05458 0.013124 -0.12401 -0.26898 0.56863 0.3825 0.052281 -0.24926 -0.28866 0.14818 -0.11863 -0.05208 -0.028133 0.10438 0.015722 0.3288 -0.12794 0.52325 -0.21978 -0.33435 0.0068949 -0.062811 0.40358 0.16878 0.090945 
마법의 0.25629 -0.091855 0.70154 -0.10904 -0.18724 -0.1148 0.16732 -0.072174 -0.046143 -0.22331 0.07191 -0.18416 -0.043582 0.27928 0.057672 -0.063858 0.15909 -0.3259 0.05532 -0.18448 0.24272 -0.057724 0.015478 0.091119 0.3287 0.099864 0.24755 -0.033623 -0.15192 0.41261 -0.11062 -0.026768 -0.053307 0.63071 -0.56749 0.046775 -0.069488 -0.35604 -0.39558 -0.093589 -0.12921 0.065125 0.1618 -0.47361 0.23729 0.054263 -0.16318 0.11895 0.033787 0.3454 -0.5897 -0.23854 0.44631 0.079651 -0.44521 -0.18216 -0.05469 0.081822 -0.76714 0.095008 -0.38528 -0.25904 0.38706 -0.52808 0.56559 -0.031832 -0.20441 -0.23116 0.089893 0.2025 -0.15731 -0.14718 0.10094 -0.07668 0.23311 0.074544 0.022468 -0.17728 -0.35692 0.77166 0.51614 0.07152 -0.33836 -0.3933 0.19898 -0.15405 -0.069649 -0.041671 0.14855 0.021049 0.45118 -0.16286 0.706 -0.29744 -0.4458 0.0020642 -0.082683 0.54597 0.23905 0.11436 
하였다. 0.20734 -0.088423 0.58042 -0.10213 -0.15691 -0.10498 0.14416 -0.065462 -0.03009 -0.19349 0.063444 -0.1518 -0.038811 0.22589 0.04505 -0.058132 0.12601 -0.26723 0.050796 -0.15767 0.19949 -0.044823 0.016829 0.081455 0.2712 0.082064 0.20853 -0.026478 -0.11761 0.356 -0.085156 -0.020961 -0.049338 0.52214 -0.47313 0.032272 -0.063318 -0.30107 -0.32869 -0.081697 -0.11264 0.051224 0.1417 -0.39012 0.2061 0.040423 -0.14263 0.090425 0.017767 0.28726 -0.48463 -0.1914 0.37054 0.063147 -0.37798 -0.15357 -0.039423 0.067263 -0.64604 0.077556 -0.32522 -0.21782 0.32264 -0.44988 0.47398 -0.021228 -0.17494 -0.18596 0.061052 0.1592 -0.13213 -0.11636 0.086487 -0.069119 0.19962 0.059025 0.013788 -0.14801 -0.29707 0.64168 0.43544 0.056871 -0.2763 -0.32501 0.17476 -0.12955 -0.06766 -0.032408 0.1169 0.016176 0.37116 -0.13993 0.58827 -0.24495 -0.38219 0.0034441 -0.06814 0.44921 0.19186 0.097058 
나왔다. 0.20053 -0.08023 0.55436 -0.095387 -0.14713 -0.098778 0.13669 -0.057995 -0.027501 -0.18023 0.059236 -0.14394 -0.038146 0.21552 0.045419 -0.055583 0.11592 -0.25462 0.049877 -0.14906 0.18884 -0.04675 0.017545 0.076497 0.25884 0.077761 0.19996 -0.021714 -0.10947 0.33916 -0.079976 -0.016956 -0.049752 0.5023 -0.45011 0.031189 -0.058894 -0.28665 -0.31494 -0.078982 -0.11104 0.046343 0.13676 -0.37148 0.19466 0.03906 -0.13463 0.09062 0.018098 0.27226 -0.45806 -0.18279 0.3534 0.05834 -0.35885 -0.14883 -0.037643 0.063852 -0.61706 0.075009 -0.31166 -0.20971 0.30887 -0.42905 0.45019 -0.024578 -0.16912 -0.18041 0.060779 0.15109 -0.12898 -0.11286 0.08282 -0.068254 0.18798 0.056345 0.012577 -0.14212 -0.2881 0.61291 0.41564 0.057295 -0.26168 -0.3103 0.16265 -0.12089 -0.065251 -0.033998 0.11522 0.017357 0.36192 -0.13351 0.55863 -0.22834 -0.37007 0.0060604 -0.063538 0.43446 0.18488 0.094565 
차원의 0.20316 -0.083237 0.58183 -0.09029 -0.15139 -0.099013 0.13478 -0.068312 -0.034082 -0.18415 0.060067 -0.14384 -0.039169 0.22426 0.04493 -0.059309 0.12751 -0.26888 0.049083 -0.15957 0.19719 -0.050117 0.0078538 0.075703 0.26395 0.085275 0.20709 -0.026602 -0.1258 0.34353 -0.087211 -0.019348 -0.051068 0.51609 -0.47178 0.032633 -0.056423 -0.29277 -0.32813 -0.073448 -0.11218 0.043155 0.13276 -0.39088 0.19829 0.048353 -0.13356 0.097586 0.026016 0.28231 -0.48323 -0.19387 0.36217 0.064131 -0.37203 -0.15135 -0.048441 0.071343 -0.63792 0.077268 -0.3151 -0.21778 0.32578 -0.43538 0.46779 -0.025641 -0.1713 -0.18541 0.072099 0.16254 -0.13145 -0.11899 0.083422 -0.057804 0.18896 0.060554 0.015813 -0.14409 -0.29895 0.63691 0.43714 0.059346 -0.2773 -0.32255 0.15497 -0.12914 -0.060949 -0.03283 0.12725 0.021805 0.37456 -0.13471 0.57954 -0.24184 -0.36602 0.00056627 -0.064929 0.45708 0.19496 0.10139 
문이 0.16483 -0.069723 0.46653 -0.07344 -0.1294 -0.078313 0.11027 -0.054771 -0.025776 -0.14925 0.049742 -0.12034 -0.028595 0.18266 0.038131 -0.044626 0.10692 -0.22168 0.044417 -0.1311 0.15875 -0.040705 0.0098069 0.064716 0.21763 0.060279 0.16922 -0.020227 -0.093446 0.28036 -0.074511 -0.021499 -0.039286 0.42247 -0.38464 0.030055 -0.045056 -0.23593 -0.26539 -0.056582 -0.093761 0.036282 0.11485 -0.31502 0.1667 0.032882 -0.11062 0.080121 0.017892 0.22683 -0.38619 -0.15581 0.29674 0.057848 -0.30302 -0.12161 -0.031886 0.057559 -0.51693 0.06743 -0.26204 -0.17909 0.25819 -0.36159 0.38152 -0.021292 -0.14369 -0.15169 0.058071 0.133 -0.10422 -0.09889 0.069315 -0.04345 0.1581 0.045128 0.0082837 -0.11544 -0.23719 0.51978 0.35007 0.048326 -0.23014 -0.25907 0.13541 -0.10669 -0.047492 -0.023854 0.10206 0.018302 0.30336 -0.11105 0.47514 -0.19584 -0.30228 0.0015221 -0.059357 0.36959 0.15551 0.079634 
라는 0.22337 -0.087701 0.64894 -0.11083 -0.17514 -0.10882 0.14952 -0.066794 -0.034932 -0.20796 0.065858 -0.15973 -0.043613 0.24738 0.047285 -0.068566 0.13814 -0.30127 0.0577 -0.17765 0.2217 -0.051316 0.012014 0.079619 0.30852 0.083686 0.23195 -0.034643 -0.13433 0.38537 -0.092547 -0.023496 -0.048059 0.57632 -0.52235 0.041453 -0.070282 -0.33105 -0.35613 -0.086441 -0.12929 0.052782 0.15348 -0.43169 0.22668 0.05049 -0.15426 0.10314 0.022127 0.32284 -0.54244 -0.21487 0.4186 0.074052 -0.41236 -0.1671 -0.049688 0.084314 -0.71216 0.084732 -0.35777 -0.24096 0.361 -0.49002 0.52061 -0.03428 -0.19374 -0.21569 0.081674 0.18133 -0.14148 -0.12768 0.093549 -0.070657 0.21844 0.069743 0.018061 -0.16914 -0.33255 0.70722 0.48524 0.060386 -0.31558 -0.35575 0.18423 -0.14833 -0.065655 -0.03669 0.13606 0.021112 0.41509 -0.14851 0.64854 -0.27079 -0.41851 0.0018155 -0.073298 0.50355 0.21717 0.11184 
그들은 0.2321 -0.091822 0.64876 -0.10585 -0.17719 -0.10968 0.15852 -0.073007 -0.037879 -0.21041 0.073447 -0.16468 -0.045341 0.2531 0.050642 -0.062425 0.14179 -0.30571 0.052287 -0.17417 0.22395 -0.053754 0.01584 0.083563 0.30333 0.092768 0.23264 -0.034692 -0.13548 0.39379 -0.095806 -0.023326 -0.051075 0.58225 -0.52727 0.039472 -0.065358 -0.33065 -0.36464 -0.086119 -0.12517 0.052892 0.15286 -0.43673 0.22613 0.05032 -0.15861 0.10922 0.024923 0.31952 -0.54217 -0.21951 0.41219 0.074083 -0.40962 -0.17252 -0.047024 0.08034 -0.71601 0.084631 -0.35375 -0.24194 0.36457 -0.49262 0.52203 -0.026656 -0.19122 -0.21765 0.084347 0.18152 -0.14558 -0.13187 0.097131 -0.068699 0.22032 0.066384 0.014448 -0.16214 -0.32914 0.71582 0.48328 0.063542 -0.31348 -0.3642 0.18711 -0.14376 -0.068043 -0.037693 0.13498 0.014034 0.41743 -0.15429 0.65013 -0.27794 -0.41906 -0.00042231 -0.070601 0.50859 0.22259 0.10952 
눈이 0.17991 -0.072493 0.4952 -0.078217 -0.13145 -0.07666 0.11753 -0.050281 -0.026182 -0.15614 0.059833 -0.12708 -0.036602 0.19506 0.043975 -0.049727 0.10813 -0.23462 0.043761 -0.13262 0.17071 -0.045645 0.0090136 0.063319 0.23108 0.069545 0.17993 -0.022204 -0.10635 0.30328 -0.070688 -0.019185 -0.038783 0.45102 -0.40899 0.033161 -0.050291 -0.26076 -0.28373 -0.068533 -0.098705 0.0448 0.11852 -0.34048 0.17922 0.042785 -0.12205 0.080599 0.015381 0.24819 -0.42025 -0.16886 0.31819 0.056272 -0.31562 -0.12506 -0.037367 0.068086 -0.54837 0.069859 -0.27633 -0.19384 0.27576 -0.38021 0.39727 -0.017823 -0.15152 -0.16518 0.06285 0.13668 -0.11116 -0.10712 0.07281 -0.057528 0.17107 0.051195 0.011648 -0.1296 -0.25494 0.55008 0.37367 0.047189 -0.2407 -0.2772 0.14649 -0.11131 -0.055092 -0.034304 0.10006 0.015928 0.31925 -0.11837 0.50243 -0.21459 -0.32237 0.0018721 -0.057883 0.38649 0.17039 0.081323 
